const int SEQ_LEN = 50;
const int NUM_INPUT_FEATURES = 7;
const int NUM_FEATURES = 25;
const int HIDDEN_SIZE = 100;
const int NUM_CLASSES = 8;

static const float RNN_INPUT_WEIGHTS_TRANSPOSED[NUM_FEATURES][HIDDEN_SIZE] = {{0.058362528681755066, 0.036505814641714096, -0.002796547021716833, 0.015958130359649658, 0.0036641086917370558, 0.027907099574804306, 0.013189821504056454, -0.0069060977548360825, -0.01628071255981922, -0.0021286774426698685, -0.0008944212459027767, -0.006663730833679438, -0.018687494099140167, -0.08148831129074097, 0.02171577885746956, -0.020512282848358154, -0.014166804030537605, -0.033365823328495026, -0.03399647772312164, -0.02811926044523716, -0.0035855257883667946, -0.027716876938939095, -0.019252311438322067, 0.02551381103694439, 0.0035512964241206646, 0.005311174783855677, 0.008165955543518066, 0.013832679018378258, -0.00026079759118147194, -0.01574810780584812, 0.016530849039554596, 0.019102811813354492, 0.01818016543984413, -0.037268608808517456, 0.013995751738548279, -0.018517296761274338, 0.01701938547194004, 0.008346554823219776, -0.013610637746751308, -0.040765538811683655, 0.02869577892124653, -0.032182786613702774, 0.026088058948516846, -0.017351817339658737, -0.013722922652959824, -0.003468472044914961, 0.00731683149933815, 0.0165292676538229, 0.023894211277365685, 0.01683962345123291, 0.024512778967618942, 0.006098961923271418, -0.019228028133511543, -0.043263424187898636, 0.003181180451065302, -0.02050911821424961, 0.010289181023836136, 0.03502334654331207, 0.000873389421030879, 0.007674933411180973, 0.019818097352981567, 0.031069455668330193, 0.027734918519854546, 0.010284827090799809, 0.0009815122466534376, -0.005642372649163008, -0.07428599894046783, -0.002562739187851548, -0.026063097640872, -0.012349210679531097, -0.052557092159986496, 0.009479149244725704, 0.02138737589120865, -0.016173619776964188, -0.006504400167614222, -0.030876869335770607, -0.02230147272348404, -0.0014366679824888706, 0.006935516372323036, -0.006341617554426193, -0.038231369107961655, -0.024052735418081284, 0.005892921704798937, -0.027439584955573082, 0.02713083103299141, 0.03963877260684967, 0.026872709393501282, 0.012745567597448826, -0.009274168871343136, -0.03548693284392357, -0.006708080880343914, 0.017102224752306938, -0.025979362428188324, 0.021891038864850998, -0.0035263632889837027, 0.027646051719784737, -0.0229831300675869, 0.005692997481673956, -0.011522850021719933, -0.009527483955025673}, {0.11260862648487091, 0.06970185041427612, -0.005275198258459568, 0.06298451870679855, 0.002040575258433819, 0.0640939399600029, 0.07311555743217468, 0.04613747075200081, -0.030803164467215538, 0.02105242945253849, 0.006771943997591734, -0.012872709892690182, -0.033099688589572906, -0.0035605779848992825, 0.025353027507662773, -0.058997731655836105, -0.08840104937553406, -0.03399154171347618, -0.09530804306268692, -0.05036783218383789, 0.027213051915168762, -0.09110894799232483, -0.017861131578683853, -0.003122949507087469, 0.05333995074033737, -0.03207128494977951, 0.020581139251589775, -0.04992067441344261, 0.05204963684082031, -0.02468380518257618, 0.07633484154939651, 0.11164102703332901, 0.07845015078783035, -0.09649089723825455, -0.00014408187416847795, -0.022550951689481735, 0.057343702763319016, -0.03584713488817215, -0.06487532705068588, -0.08592665940523148, 0.019450446590781212, -0.054690875113010406, 0.036633823066949844, -0.004660225007683039, -0.08249031007289886, 0.032411251217126846, 0.0015710096340626478, 0.02152860537171364, 0.030579878017306328, 0.01662496291100979, 0.08292687684297562, 0.055810362100601196, -0.08448396623134613, -0.11583532392978668, 0.043888192623853683, -0.07673009485006332, 0.010151431895792484, 0.12326718121767044, -0.01863127388060093, 0.03351747244596481, 0.0031523106154054403, -0.0377621203660965, 0.031298212707042694, 0.03619353100657463, -0.028873268514871597, 0.0005743610672652721, -0.17021575570106506, -0.005636607296764851, -0.06617571413516998, -0.060735899955034256, -0.07997769862413406, 0.006130656227469444, -0.020348794758319855, -0.01061386801302433, -0.028208978474140167, -0.04310142621397972, -0.039634935557842255, -0.015154840424656868, 0.028398003429174423, 0.012853915803134441, -0.010928219184279442, -0.07872840017080307, -0.049970559775829315, -0.03727151080965996, 0.016241619363427162, 0.12705285847187042, 0.07844734936952591, 0.020219802856445312, -0.02332075871527195, -0.10088901966810226, 0.0026493777986615896, 0.09086406230926514, -0.10649465024471283, -0.034155573695898056, 0.00603800592944026, 0.08637285977602005, -0.0002626497589517385, 0.012306038290262222, 0.0014781487407162786, 0.03988693282008171}, {0.13329890370368958, -0.027487844228744507, 0.04047003760933876, -0.07478605210781097, -0.0071793776005506516, -0.0164509154856205, 0.09168122708797455, 0.052496396005153656, -0.09096856415271759, 0.10806349664926529, -0.07284900546073914, -0.02127794362604618, -0.08298452198505402, 0.08967835456132889, -0.03979010134935379, -0.04658062011003494, -0.09023967385292053, -0.14297723770141602, -0.08296015858650208, 0.007932915352284908, -0.038094449788331985, -0.09423048794269562, 0.009699358604848385, -0.017491552978754044, -0.05427630618214607, -0.02286161668598652, -0.06286107003688812, -0.034912917762994766, -0.018661288544535637, 0.054915688931941986, 0.06596234440803528, 0.07086911052465439, 0.03680328279733658, -0.032382190227508545, 0.09393422305583954, 0.060082316398620605, -0.02666190080344677, -0.010733533650636673, -0.057458557188510895, -0.04152495414018631, 0.07083098590373993, -0.12277378141880035, -0.041650574654340744, 0.02719244547188282, -0.04689988121390343, 0.017027048394083977, -0.03606244549155235, -0.030537074431777, -0.05497661232948303, -0.030500687658786774, 0.09188879281282425, 0.045984700322151184, -0.12265204638242722, -0.07842019945383072, 0.03854735568165779, 0.06284192204475403, -0.05505344644188881, 0.09933538734912872, -0.049154628068208694, 0.10507404059171677, 0.01725929230451584, 0.014219586737453938, 0.03742368519306183, 0.08869519084692001, 0.053989261388778687, -0.045782748609781265, 1.628587779123336e-05, 0.040855180472135544, -0.13106782734394073, -0.060164328664541245, 0.058674681931734085, 0.03586103394627571, 0.09910673648118973, -0.0709008276462555, -0.0719810426235199, -0.08609535545110703, 0.049623556435108185, -0.020288055762648582, -0.005207221023738384, 0.043183621019124985, 0.043471891433000565, -0.08605124056339264, -0.08538918942213058, -0.0722775086760521, 0.07494983822107315, 0.0641770288348198, 0.05215678736567497, -0.029241031035780907, 0.06934285908937454, -0.015872742980718613, -0.021140120923519135, 0.11205266416072845, 0.007554220966994762, 0.006879311054944992, 0.0667894184589386, 0.10886487364768982, -0.079690121114254, 0.017615823075175285, 0.04858952760696411, 0.03147090598940849}, {-0.04821668565273285, 0.037498317658901215, -0.02076726034283638, 0.07418057322502136, 0.06405504792928696, 0.07927604019641876, -0.0022801959421485662, 0.0752611756324768, 0.08994144946336746, -0.05553269758820534, 0.028328480198979378, 0.07434821128845215, 0.03283490613102913, 0.03268624097108841, -0.03714451566338539, -0.019911611452698708, -0.06485871225595474, 0.10440479218959808, -0.0032114852219820023, 0.03733556345105171, 0.020238066092133522, -0.06991399824619293, 0.0457855686545372, -0.05227949097752571, 0.10032276064157486, 0.04428032040596008, -0.01939205266535282, -0.07991380989551544, -0.022655654698610306, -0.05916284769773483, 0.05585435405373573, -0.01690559647977352, -0.020183708518743515, -0.08293253928422928, -0.034351103007793427, 0.03663811832666397, 0.045928336679935455, -0.020498478785157204, -0.01705215685069561, -0.015037155710160732, -0.06817356497049332, -0.0029127185698598623, 0.03871241211891174, 0.05534826219081879, 0.027920594438910484, -0.01398455910384655, -0.0385473258793354, 0.01963345892727375, 0.04012233763933182, 0.013389616273343563, -0.11290805041790009, 0.010461932048201561, 0.09204650670289993, -0.0841025710105896, -0.032131072133779526, -0.0743018388748169, -0.051507145166397095, 0.047345567494630814, -0.02328992262482643, -0.030247576534748077, -0.11796846985816956, 0.0053744143806397915, -0.07266370952129364, 0.0527779757976532, -0.028898250311613083, 0.012410549446940422, -0.16382114589214325, 0.010009192861616611, 0.10837193578481674, -0.03351132944226265, -0.11822279542684555, -0.02011239528656006, -0.09618061035871506, 0.0490594319999218, -0.04959087073802948, -0.06217172369360924, -0.046178724616765976, -0.10000259429216385, 0.09138175845146179, 0.054537802934646606, 0.028641492128372192, 0.02203456126153469, -0.07266663014888763, 0.11419625580310822, -0.06840945035219193, -0.043623894453048706, 0.018068812787532806, -0.03596006706357002, -0.06541300565004349, -0.03909454867243767, 0.02671770378947258, -0.05341626703739166, -0.07867888361215591, -0.017710639163851738, -0.04490220174193382, -0.051167622208595276, 0.098105289041996, -0.04831971973180771, -0.060433633625507355, 0.11907464265823364}, {0.025446759536862373, -0.013624221086502075, -0.04604627192020416, -0.02259034849703312, 0.006072377786040306, -0.03810938447713852, -0.006720543839037418, -0.028865857049822807, -0.007835092023015022, -0.03129962831735611, 0.011210616677999496, -0.024046456441283226, 0.025728680193424225, -0.07508109509944916, -0.0070438077673316, 0.014396242797374725, 0.028308505192399025, 0.04265274107456207, 0.0033168154768645763, 0.010915002785623074, -0.02036784589290619, 0.014430677518248558, -0.00394848408177495, 0.025824008509516716, 0.01448827050626278, -0.07039519399404526, -0.027212612330913544, -0.0014277914306148887, 0.038850437849760056, 0.01590839773416519, 0.004462225362658501, 0.031567420810461044, -0.001240969286300242, 0.03916548192501068, -0.01995338872075081, 0.019545312970876694, 0.00813108216971159, 0.006982490886002779, 0.012208555825054646, -0.009614788927137852, 0.01864846982061863, 0.04548381641507149, -0.03838244453072548, 0.024118874222040176, 0.03476778417825699, -0.014580607414245605, 0.037596121430397034, 0.026632824912667274, -0.023517994210124016, 0.02218788117170334, 0.03945101797580719, -0.025826837867498398, 0.05150052160024643, 0.027125779539346695, 0.016867710277438164, 0.01996792107820511, -0.03418971598148346, -0.051280807703733444, -0.010841324925422668, 0.004373923409730196, 0.019599322229623795, -0.08404433727264404, 0.01155555248260498, -0.02821716107428074, 0.010958675295114517, 0.005619385279715061, 0.08421333879232407, -0.02280840091407299, -0.018362445756793022, 0.023667234927415848, -0.00898970477283001, 0.005126047879457474, -0.028459087014198303, 0.005034250672906637, 0.052313074469566345, 0.04360901936888695, -0.02288842387497425, 0.03194359317421913, 0.028828872367739677, -0.019032061100006104, -0.011643344536423683, 0.03471196070313454, -0.016321605071425438, 0.003919320181012154, -0.05035882070660591, 0.0779794454574585, 0.008838717825710773, -0.009686325676739216, -0.014386606402695179, 0.00324059184640646, -0.007705326657742262, 0.011763355694711208, 0.028738707304000854, 0.038913793861866, -0.017764342948794365, 0.023693352937698364, 0.03745539113879204, 0.0199442021548748, 0.017408380284905434, -0.11427541077136993}, {-0.05390813574194908, -0.03232818469405174, -0.03482849523425102, -0.04077870771288872, 0.005802451632916927, -0.06637675315141678, -0.0668688714504242, -0.078680619597435, 0.00353655475191772, -0.03537903353571892, -0.01723143830895424, -0.01355684269219637, -0.00042022205889225006, -0.13008782267570496, 0.018216611817479134, 0.001452847383916378, 0.09494106471538544, 0.009377440437674522, 0.0949932187795639, 0.023270798847079277, -0.05789309740066528, 0.02003573812544346, -0.025991588830947876, 0.06862850487232208, 0.007747409865260124, -0.016877900809049606, -0.025447409600019455, 0.02468309924006462, 0.05788438767194748, 0.04295685142278671, 0.0007528780261054635, -0.03414904698729515, -0.03386541083455086, 0.035339951515197754, -0.006937874015420675, 0.036718644201755524, -0.007586722262203693, 0.02043900080025196, 0.03422790765762329, 0.03152111917734146, 0.13956616818904877, 0.029893014580011368, -0.03777949884533882, -0.016868721693754196, 0.00967347901314497, -0.03298543021082878, 0.042203389108181, 0.03076525405049324, -0.022813735529780388, 0.09202654659748077, -0.03575575351715088, -0.09824914485216141, 0.07670541107654572, 0.047735538333654404, 0.0012051297817379236, 0.08770371228456497, 0.002366112545132637, -0.05553033575415611, -0.018093246966600418, 0.02224220149219036, 0.005586771294474602, -0.005157476756721735, 0.00972223374992609, -0.05011134594678879, 0.04410397261381149, -0.021155837923288345, 0.10538507252931595, -0.014297032728791237, -0.0019424471538513899, 0.04345448687672615, -0.002820245921611786, 0.03220891207456589, -0.003746168455109, 0.0004271720245014876, 0.0596793070435524, 0.07861831039190292, -0.038698915392160416, 0.05068416893482208, 0.07483340799808502, -0.04772977903485298, -0.061885371804237366, 0.07813895493745804, -0.04056296497583389, 0.06002353876829147, -0.04020358994603157, -0.0015061309095472097, 0.013159161433577538, 0.01885523833334446, -0.015658367425203323, 0.03238127753138542, -0.0338943675160408, -0.038105521351099014, 0.07353990525007248, 0.12887297570705414, -0.02377483621239662, -0.009332837536931038, -0.04129263013601303, 0.04047893360257149, -0.005117157474160194, -0.11501362919807434}, {-0.015674540773034096, -0.057653822004795074, -0.06771504878997803, 0.014871489256620407, -0.026693394407629967, -0.06757061928510666, 0.0010994143085554242, -0.03406914323568344, -0.005732153542339802, -0.03976726531982422, 0.06443781405687332, -0.0788276419043541, 0.08666220307350159, 0.046157367527484894, 0.00589892128482461, 0.06820113211870193, 0.0563056580722332, -0.006472710985690355, 0.013420061208307743, -0.020394813269376755, 0.03273247927427292, 0.1074647530913353, 0.01747134141623974, 0.00979751255363226, 0.07995213568210602, -0.10171014815568924, 0.009565526619553566, -0.03634217754006386, 0.09496032446622849, 0.00822069775313139, 0.0012202328070998192, 0.05118563398718834, 0.02720315381884575, 0.11034458130598068, -0.07365052402019501, -0.023692330345511436, -0.026906657963991165, -0.011460010893642902, 0.05442440137267113, -0.09479232132434845, -0.008341037668287754, 0.11414899677038193, -0.07112716883420944, 0.05318036302924156, 0.06530778855085373, 0.0271587036550045, 0.09570876508951187, 0.010790136642754078, -0.06417236477136612, 0.034504856914281845, 0.03533980995416641, -0.048634205013513565, 0.07542096078395844, 0.011704451404511929, 0.04665320739150047, 0.022193269804120064, -0.011401488445699215, -0.10972250998020172, 0.014969252049922943, -0.08211860805749893, 0.04952060431241989, -0.13537438213825226, -0.04596478119492531, -0.08992508053779602, -0.026533307507634163, 0.016672994941473007, 0.21277590095996857, -0.026264265179634094, -0.07674992829561234, 0.07227034121751785, 0.03944171965122223, 0.002517542103305459, -0.09559859335422516, 0.07124006748199463, 0.1324489414691925, 0.10800376534461975, 0.029732316732406616, 0.048179883509874344, -0.08899872750043869, -0.037916798144578934, 0.0021968665532767773, 0.031016401946544647, 0.005741707980632782, -0.0846177488565445, -0.005918457172811031, 0.13294844329357147, -0.02627674862742424, -0.028300929814577103, 0.028254328295588493, 0.03612928465008736, 0.03400807827711105, -0.054662998765707016, -0.03965255245566368, 0.03447903320193291, 0.010216254740953445, -0.008920220658183098, 0.10812273621559143, 0.06233131140470505, 0.07137873768806458, -0.058558374643325806}, {-0.11611433327198029, 0.02413984201848507, 0.030075065791606903, -0.026487205177545547, 0.018540792167186737, -0.015567892231047153, -0.05686062574386597, -0.04270525276660919, 0.06637218594551086, -0.03280453756451607, -0.051785022020339966, 0.0041587743908166885, -0.051551807671785355, -0.23212924599647522, 0.04488733783364296, 0.01340736448764801, 0.046344973146915436, 0.12490687519311905, 0.06766806542873383, 0.03691087290644646, -0.03458163142204285, -0.020730093121528625, -0.06153702735900879, 0.03763716295361519, 0.022161658853292465, 0.1500171273946762, 0.015496142208576202, 0.03453168272972107, -0.015937242656946182, -0.03178941830992699, 0.027320783585309982, -0.0937247946858406, -0.05120859295129776, -0.03669261932373047, 0.03955947980284691, 0.02701934240758419, 0.03895171731710434, 0.0651719942688942, -0.019293006509542465, 0.09322960674762726, 0.16288311779499054, -0.03657910227775574, 0.06255137920379639, -0.07301817834377289, 0.024411439895629883, -0.012145992368459702, -0.03357549011707306, 0.026984142139554024, 0.04391958564519882, 0.04019138216972351, -0.09646124392747879, -0.025872796773910522, -0.010854753665626049, -0.010595264844596386, -0.039140813052654266, 0.036994583904743195, 0.036465540528297424, 0.09007304906845093, -0.024272100999951363, 0.017548982053995132, -0.08508612215518951, 0.10115361213684082, 0.03504258766770363, 0.00318075786344707, 0.05832928791642189, -0.019458690658211708, -0.03919052332639694, 0.005773302633315325, 0.07438412308692932, -0.03695283457636833, -0.05578410252928734, 0.02251785434782505, 0.030251219868659973, -0.010406874120235443, -0.04213710129261017, -0.07177162915468216, -0.04984959587454796, -0.00946100614964962, 0.1098024770617485, -0.03575269132852554, -0.043829530477523804, 0.03104865550994873, -0.04550166428089142, 0.07760980725288391, -0.10149554908275604, -0.1358867883682251, -0.004077835939824581, 0.07512723654508591, -0.047092851251363754, 0.020104393362998962, -0.06476076692342758, -0.038129884749650955, 0.07328829914331436, 0.0818949043750763, -0.02790595218539238, -0.09266062080860138, -0.08416304737329483, -0.012358909472823143, -0.046391021460294724, -0.029052721336483955}, {-0.022580690681934357, 0.05317416042089462, 0.07443645596504211, 0.015104485675692558, 0.016352389007806778, 0.0657559335231781, 0.02716982364654541, 0.03827573359012604, 0.008219759911298752, 0.014641895890235901, -0.03178966045379639, -0.0052057416178286076, -0.007275191601365805, 0.06100485473871231, 0.04067373648285866, -0.0038191338535398245, -0.025362487882375717, 0.019557448104023933, 0.0008837093482725322, -0.012100148014724255, -0.0032905638217926025, -0.01950276643037796, -0.028978822752833366, -0.0028813688550144434, -0.04297666251659393, 0.025277268141508102, 0.03774821013212204, 0.035982415080070496, -0.005013190675526857, -0.05019863694906235, -0.053118426352739334, 0.00979572907090187, 0.02017848938703537, 0.008721897378563881, -0.0007944382959976792, -0.027224034070968628, 0.013883001171052456, 0.059355154633522034, -0.009468762204051018, -0.03759203106164932, 0.015952391549944878, -0.012881211005151272, 0.03137456253170967, -0.04802615940570831, -0.01299623679369688, 0.04376274719834328, -0.02060423046350479, -0.034923020750284195, 0.056005243211984634, -0.003456717822700739, 0.026147471740841866, -0.023100733757019043, -0.06081417575478554, 0.0631609782576561, -0.01495019719004631, -0.04798733815550804, 0.06174798309803009, -0.049241017550230026, 0.04320155456662178, -0.010637132450938225, -0.030602626502513885, -0.05799860507249832, 0.042017824947834015, 0.04619499668478966, 0.01164082158356905, -0.04202650859951973, 0.07189048081636429, 0.06067592278122902, -0.021203288808465004, -0.009993850253522396, -0.03077770210802555, -0.014773945324122906, -0.02796250954270363, -0.017466522753238678, -0.029678035527467728, 0.031718701124191284, 0.01127824280411005, -0.03656046837568283, -0.054471731185913086, 0.013442210853099823, -0.0035569039173424244, 0.0025736012030392885, 0.038155123591423035, -0.04502396658062935, 0.012264786288142204, 0.05157246068120003, -0.03331233188509941, 0.04952756687998772, -0.00937410444021225, -0.06119287386536598, -0.008303381502628326, 0.007577084004878998, -0.002689359011128545, -0.018601778894662857, 0.020755920559167862, 0.028658119961619377, -0.004786010831594467, -0.040809325873851776, -0.04427018389105797, -0.0811561867594719}, {-0.03442562744021416, 0.07113317400217056, 0.10111961513757706, -0.000404621270718053, -0.015841737389564514, 0.07481537759304047, 0.021330224350094795, 0.012673458084464073, 0.001095035346224904, 0.03619813546538353, -0.06346018612384796, -0.0011739748297259212, -0.049243394285440445, 0.07151579856872559, 0.07690595835447311, -0.013135162182152271, 0.01743445359170437, 0.020735910162329674, 0.005378424655646086, -0.025572054088115692, 0.028477860614657402, -0.02788892202079296, -0.047818008810281754, 0.03080102428793907, 0.026681020855903625, -0.039998650550842285, 0.09609635919332504, 0.07612294703722, 0.02248627319931984, -0.10977483540773392, -0.06968340277671814, 0.0443965382874012, 0.0021355145145207644, -0.006847558543086052, 0.0266681257635355, -0.08227472007274628, -0.00832794513553381, 0.1343841552734375, -0.004116715397685766, 0.04395350068807602, 0.03662050887942314, -0.03145384043455124, 0.04719378054141998, -0.12296990305185318, 0.0294475257396698, 0.042671963572502136, -0.0366315022110939, -0.044276051223278046, 0.06436891108751297, -0.029217129573225975, 0.00993699487298727, 0.028242263942956924, -0.06399335712194443, 0.01851525716483593, -0.011739748530089855, -0.0849422737956047, 0.1400047242641449, -0.018421392887830734, 0.0723951980471611, -0.008641879074275494, 0.016421152278780937, -0.015747031196951866, 0.0959080159664154, 0.044381365180015564, 0.0009331765468232334, -0.05494968965649605, 0.06347227096557617, 0.08027432858943939, -0.0012733861804008484, -0.004373866133391857, -0.010662405751645565, 0.030338918790221214, -0.011554833501577377, 0.0044883559457957745, -0.04304153099656105, -0.011626911349594593, 0.008322605863213539, -0.047982215881347656, -0.053349290043115616, -0.013501066714525223, -0.04910155013203621, -0.010627462528645992, 0.09373697638511658, -0.038531504571437836, -0.01621733233332634, 0.013856698758900166, -0.06429902464151382, 0.0962870791554451, -0.000164825891260989, -0.060955196619033813, -0.03594673424959183, 0.03775620087981224, 0.014492493122816086, -0.0031126493122428656, 0.03367748484015465, -0.0593087375164032, -0.02725011110305786, -0.07383958250284195, -0.08783583343029022, -0.1352595090866089}, {0.036205511540174484, 0.02829933725297451, 0.08206608146429062, -0.06475376337766647, -0.009340386837720871, 0.02534705586731434, 0.060063861310482025, 0.028223831206560135, -0.011701556853950024, 0.036300115287303925, -0.07008911669254303, 0.03778133913874626, -0.03867059946060181, -0.00675928546115756, 0.023003660142421722, -0.002760970965027809, 0.014870445244014263, -0.012988327071070671, -0.03178418055176735, 0.03016046993434429, -0.03746722638607025, -0.008762448094785213, -0.020339034497737885, -0.02329661324620247, -0.11146065592765808, -0.06171892583370209, 0.017702361568808556, 0.05237146466970444, 0.0023588610347360373, -0.03881465643644333, -0.01690893992781639, -0.014788579195737839, 0.0344066359102726, -0.021144190803170204, 0.04708211496472359, -0.014918005093932152, -0.01009555347263813, 0.058717187494039536, 0.004371299408376217, -0.023529937490820885, 0.00624836003407836, -0.04810694232583046, -0.00013226295413915068, -0.042372047901153564, -0.009627980180084705, 0.018455838784575462, -0.016423959285020828, -0.037567153573036194, 0.033106423914432526, -0.006871107034385204, -0.002812689635902643, 0.009281675331294537, -0.09474702179431915, 0.07440847903490067, 0.03404439985752106, 0.012668090872466564, 0.042080432176589966, 0.033553555607795715, 0.004214545711874962, 0.06171909719705582, -0.006988427136093378, 0.011464600451290607, 0.06350257247686386, 0.04745633900165558, 0.051211073994636536, -0.05366653576493263, 0.07495179027318954, 0.04879900813102722, -0.0037265282589942217, -0.0003733630874194205, 0.052956826984882355, 0.00484360009431839, 0.015618971548974514, -0.022751901298761368, -0.049715254455804825, 0.01771116442978382, 0.034607693552970886, 0.0037502411287277937, 0.0184760894626379, 0.009221083484590054, -0.0073126149363815784, -0.0027195157017558813, 0.0060851117596030235, -0.029176833108067513, 0.01764969900250435, 0.055271442979574203, 0.00808105431497097, 0.037503696978092194, 0.03630051389336586, -0.005817714612931013, -0.03596669062972069, 0.0684649720788002, -0.019431602209806442, 0.002022995613515377, 0.04465317726135254, 0.036759842187166214, -0.005302542354911566, -0.038100846111774445, -0.028023626655340195, -0.08855564892292023}, {-0.06111970916390419, 0.002149044070392847, 0.09803158044815063, -0.04779583215713501, 0.04513093829154968, 0.028576552867889404, -0.002019028179347515, 0.002147187013179064, 0.027016259729862213, 0.020531240850687027, -0.05355551093816757, -0.04633869230747223, -0.08305478096008301, -0.05654608830809593, 0.004396327771246433, 0.0823603942990303, 0.007588274776935577, 0.056635305285453796, 0.02346755750477314, 0.000266784627456218, -0.06574546545743942, 0.013316462747752666, 0.017805075272917747, 0.09169668704271317, 0.06875746697187424, 0.07841931283473969, 0.0340350978076458, -0.015271179378032684, 0.04455387964844704, 0.03729119151830673, 0.10162301361560822, -0.03265046328306198, -0.01680433377623558, -0.03588419780135155, 0.039220962673425674, 0.002728489926084876, 0.008098544552922249, -0.01731736585497856, 0.03322819620370865, 0.10819351673126221, 0.07011719048023224, -0.07415763288736343, -0.021302703768014908, -0.04496726393699646, 0.10232175141572952, 0.04345223307609558, -0.025375012308359146, -0.06900669634342194, -0.014056435786187649, -0.0644136294722557, -0.09683212637901306, 0.022889629006385803, -0.10463222116231918, -0.0639057531952858, 0.06304100155830383, 0.015612270683050156, 0.0829262062907219, -0.0022643988486379385, 0.010732949711382389, -0.006097360979765654, -0.04130600392818451, 0.06686487793922424, 0.051149602979421616, 0.023028694093227386, -0.012066051363945007, -0.014367284253239632, 0.010455243289470673, 0.06305904686450958, 0.041670504957437515, -0.0026866369880735874, -0.001774332718923688, -0.03202955052256584, 0.002538106171414256, 0.019105134531855583, -0.04077334702014923, 0.0006731353932991624, 0.0362912155687809, 0.007369873113930225, 0.03725932911038399, 0.06348526477813721, 0.020598679780960083, -0.052843693643808365, 0.008919883519411087, 0.04351253807544708, -0.06847234815359116, -0.11428841203451157, -0.10746889561414719, 0.042725056409835815, -0.005734848789870739, 0.0023125624284148216, 0.006159852724522352, 0.022573497146368027, -0.023352498188614845, 0.06232291832566261, 0.029517775401473045, -0.07284905761480331, 0.010482510551810265, -0.02582002803683281, 0.004228891804814339, 0.02852557599544525}, {0.0021853563375771046, 0.016198093071579933, -0.02964821457862854, 0.007393296342343092, 0.005064970813691616, 0.03172517195343971, 0.004504781682044268, 0.012844841927289963, 0.023586690425872803, 0.025279158726334572, 0.010054856538772583, 0.011795569211244583, 0.008475000038743019, 0.038069676607847214, -0.010546419769525528, -0.0011482794070616364, -0.0022644526325166225, 0.018808508291840553, 0.008647579699754715, 0.007693001534789801, 0.011117862537503242, 0.00027702670195139945, 0.007035023532807827, -0.0015713484026491642, -0.00732965674251318, -0.024793192744255066, -0.016235467046499252, 0.003291017608717084, -0.004788956604897976, -0.0018492818344384432, -0.01688537560403347, -0.0006582785863429308, -0.0011140910210087895, -0.026386503130197525, -0.0065041095949709415, 0.0007395378779619932, 0.015661800280213356, -0.004235066939145327, 0.006395795848220587, -0.017769211903214455, -0.027798902243375778, 0.003230336122214794, 0.0022813575342297554, 0.0022961683571338654, -0.003984946291893721, -0.013269002549350262, 0.003263860708102584, 0.006073374301195145, 0.013395090587437153, 0.008845233358442783, 0.005197787191718817, -0.008147957734763622, -0.0009496801649220288, 0.02311139926314354, -0.0015955764101818204, -0.009107700549066067, -0.010828332044184208, 0.013014884665608406, -0.013364133425056934, 0.00572563149034977, -0.008595024235546589, -0.026569856330752373, 0.015670815482735634, -0.0036272758152335882, 0.01190265268087387, 0.0012300271773710847, -0.01746922917664051, -0.020085101947188377, 0.015432553365826607, 0.004630711395293474, -0.00401565944775939, -0.0024885048624128103, -0.009724054485559464, -0.0033131055533885956, 0.0013066917890682817, 0.0026130652986466885, 0.009433035738766193, 0.002056014258414507, 0.011690200306475163, -0.004169587045907974, -0.0004999723751097918, 0.005904276389628649, -0.016286812722682953, -0.012962587177753448, -0.023173624649643898, 0.02952158823609352, 0.004220800939947367, -0.013006500899791718, 0.004486924968659878, -0.020008625462651253, -0.0031095254234969616, -0.005812616553157568, -0.016617022454738617, -0.012044965289533138, -0.004008326213806868, -0.016452567651867867, 0.01747336983680725, -0.0225172508507967, -0.014920523390173912, -0.006661889608949423}, {0.04794231057167053, 0.007534567732363939, 0.051662854850292206, -0.02021603286266327, 0.048156872391700745, 0.031916335225105286, 0.03127452731132507, 0.037507325410842896, 0.07242193073034286, 0.003448978764936328, -0.01711999997496605, -0.013649924658238888, -0.023066822439432144, 0.0477772019803524, -0.02012615278363228, -0.05147046223282814, -0.007791691459715366, 0.03359628841280937, -0.03637579828500748, 0.015376194380223751, -0.02616993896663189, -0.07110199332237244, 0.009970191866159439, -0.0344359315931797, -0.01366844866424799, -0.019865011796355247, 0.006209691520780325, -0.01728259027004242, 0.009267495945096016, 0.003945419564843178, 0.022525861859321594, 0.014541915617883205, 0.012704693712294102, -0.09565888345241547, -0.000652484770398587, 0.06937015056610107, 0.02769661694765091, -0.056145746260881424, -0.029200486838817596, -0.061290182173252106, -0.051672667264938354, 0.007090059574693441, 0.007117972243577242, -0.057638272643089294, -0.028065672144293785, 0.00031147379195317626, -0.01674364134669304, -0.0036765739787369967, 0.019472235813736916, -0.027577022090554237, 0.009735171683132648, 0.03090587630867958, -0.02553175389766693, 0.05755868926644325, 0.01299246121197939, -0.015434151515364647, 0.010270471684634686, 0.013811375014483929, 0.014814936555922031, 0.03333546221256256, -0.039642054587602615, -0.009101052768528461, 0.02238480933010578, 0.024184120818972588, 0.02959585189819336, -0.006614430341869593, -0.06419385969638824, 0.022626856341958046, 0.03627656772732735, -0.041131071746349335, -0.03010745532810688, 0.0014443943509832025, -0.02133672498166561, -0.04153425991535187, 0.04261811822652817, -0.061314526945352554, -0.03323164954781532, -0.02532445266842842, 0.021660082042217255, -0.020912356674671173, -0.005796870216727257, -0.03552193567156792, -0.05132061615586281, 0.028555167838931084, -0.04217090830206871, 0.013325423933565617, -0.0156287532299757, 0.00642447778955102, -0.029643749818205833, -0.03154509887099266, 0.005256322678178549, 0.055531349033117294, 0.005231649149209261, -0.012249574065208435, -0.0037086796946823597, -0.0031988450791686773, 0.03566921502351761, -0.062022797763347626, -0.014895308762788773, -0.0331818088889122}, {-0.0551844984292984, -0.00581111665815115, 0.03870312497019768, 0.07667368650436401, 0.006048338487744331, 0.017468728125095367, 0.011530577205121517, 0.033053915947675705, 0.027123207226395607, -0.021172264590859413, -0.012339082546532154, 0.08945684134960175, 0.10308627039194107, 0.15877142548561096, 0.012777037918567657, 0.046300459653139114, -0.0016362514579668641, 0.054670125246047974, 0.010293305851519108, 0.051051922142505646, 0.07717171311378479, 0.018986988812685013, -0.007151245139539242, -0.11239416152238846, 0.07330002635717392, -0.08639674633741379, 0.03717677295207977, -0.024897968396544456, -0.07638494670391083, -0.040018755942583084, -0.08589251339435577, -0.030794594436883926, -0.02689552865922451, 0.06724558025598526, -0.0679105743765831, -0.02690734528005123, -0.044050876051187515, 0.061235249042510986, 0.023670559749007225, -0.03561972826719284, -0.17816150188446045, 0.08379543572664261, 0.0012203791411593556, -0.0014218628639355302, -0.0453464537858963, 0.0358196496963501, -0.04452252388000488, -0.05077417194843292, 0.02196161262691021, -0.05930183082818985, 0.04787468910217285, 0.026896502822637558, 0.11007390171289444, 0.03951755166053772, -0.05010880157351494, -0.08738654851913452, 0.01940932869911194, -0.05073687806725502, 0.040634557604789734, -0.0637717992067337, -0.08813952654600143, -0.07676268368959427, -0.09971939027309418, -0.02422238513827324, 0.016254376620054245, -0.04031408205628395, 0.12374929338693619, 0.05863459035754204, 0.053149543702602386, 0.012455908581614494, 0.006175406277179718, 0.03732313960790634, -0.11039138585329056, 0.06427855789661407, 0.037551768124103546, 0.09406416118144989, 0.05713526904582977, -0.10478146374225616, -0.001550764893181622, -0.025718029588460922, 0.0008841457893140614, 0.028846362605690956, 0.023676443845033646, 0.05799529328942299, -0.053970254957675934, 0.027918512001633644, -0.03973156213760376, 0.007438574451953173, 0.027641164138913155, -0.004006437957286835, -0.02269629016518593, -0.06384961307048798, 0.03988245874643326, -0.10869144648313522, 0.04276714846491814, -0.044368159025907516, 0.08724331855773926, -0.048217687755823135, -0.014725778251886368, 0.0003321193507872522}, {-0.0685490220785141, 0.04400907829403877, -0.0686228796839714, -0.04008277505636215, 0.051589496433734894, 0.026309775188565254, -0.04776018112897873, -0.016124175861477852, 0.057571087032556534, -0.03265989571809769, 0.02770867384970188, -0.013172322884202003, -0.008718028664588928, -0.1589554399251938, -0.023881137371063232, -0.025398172438144684, 0.03243393823504448, 0.07759478688240051, 0.03535352274775505, -0.002683785278350115, -0.04639605060219765, -0.04736390709877014, 0.01679125800728798, 0.056536510586738586, 0.060240790247917175, 0.12232549488544464, -0.03939660266041756, -0.002210661768913269, 0.06252694129943848, 0.03125930577516556, 0.0560956671833992, -0.04094599932432175, 0.013504831120371819, -0.06471748650074005, 0.01364743523299694, 0.0508941151201725, 0.09825416654348373, -0.028627729043364525, -0.0045930142514407635, 0.02191542088985443, 0.10467921942472458, -0.06284435838460922, 0.02318287268280983, 0.02467518486082554, 0.014340353198349476, -0.06421194225549698, 0.031402837485075, 0.08549194782972336, 0.05392395704984665, 0.0826999768614769, -0.006601311732083559, -0.05919867381453514, -0.005680195987224579, 0.0033116822596639395, 0.02641294151544571, 0.02234923653304577, -0.04141455888748169, 0.05454275384545326, -0.0800548791885376, -0.00648839445784688, -0.015322156250476837, 0.05828014016151428, 0.054058872163295746, 0.032513901591300964, -0.029580798000097275, 0.04983954876661301, -0.11197293549776077, -0.06571688503026962, 0.06803418695926666, -0.023510674014687538, -0.12507377564907074, -0.04213995113968849, -0.003982279449701309, 0.00712091289460659, -0.00344233401119709, -0.03324491158127785, -0.11276660114526749, 0.04003343731164932, 0.062219809740781784, 0.015866093337535858, -0.0010922602377831936, 0.03313485160470009, -0.04182901233434677, -0.017743609845638275, -0.0652986392378807, -0.001076580141671002, 0.0662698745727539, -0.029006829485297203, -0.08005271852016449, -0.05410674214363098, 0.02928095869719982, -0.026391366496682167, -0.05267857015132904, 0.07754115760326385, -0.06508256494998932, -0.025074267759919167, -0.032364360988140106, -0.0062916455790400505, -0.05144272744655609, -0.014676577411592007}, {0.013618940487504005, 0.005102791823446751, 0.011434216983616352, 0.009662589058279991, -0.0018752432661131024, 0.013676682487130165, -0.0035103948321193457, 0.019703440368175507, -0.00017349404515698552, -0.003410980338230729, 0.0044377692975103855, -0.000641329912468791, -0.0015319953672587872, 0.011475811712443829, -0.004807593300938606, 0.0053167096339166164, -0.006470843218266964, -0.014001824893057346, -0.005147201474756002, -0.004474201239645481, 0.009091733954846859, -0.011829397641122341, 0.002183250617235899, -0.009388066828250885, -0.00028361062868498266, 0.023934753611683846, 0.0030216022860258818, -0.01164453849196434, -0.0027613001875579357, 0.00394046027213335, -0.0006646545953117311, -0.007446617353707552, 0.00391667103394866, -0.003246454056352377, -0.0010246433084830642, -0.0006133136921562254, -0.001998703693971038, 0.004260058514773846, -0.0029192103538662195, 0.013699709437787533, -0.00844379048794508, -0.0054903835989534855, -0.00020464144472498447, 0.00769344437867403, -0.00189612724352628, 0.018891043961048126, -0.0054319752380251884, -0.013699447736144066, 0.0021948781795799732, 0.0008005171548575163, 0.0051878876984119415, 0.006405183579772711, 0.00345211592502892, 0.004551721271127462, 0.0025329208001494408, -0.017909523099660873, -0.005693735089153051, 0.003308098530396819, 0.006600380875170231, -0.005204434040933847, -0.0005218884907662868, 0.014928306452929974, -0.0030766837298870087, 0.004720869939774275, -0.010543309152126312, 0.0033528488129377365, -0.033304084092378616, 0.007706836331635714, -0.0058515798300504684, -0.0046599735505878925, -0.00035416948958300054, -0.0046714963391423225, -0.004428253974765539, 0.008380459621548653, -0.014447152614593506, -0.01013623084872961, 0.010672997683286667, -0.0069227684289216995, 0.00457764184102416, -0.0005815603653900325, 0.012770011089742184, -0.0053097582422196865, 1.0151470632990822e-05, 0.022694723680615425, 0.016097137704491615, -0.023680387064814568, -0.0047608609311282635, -0.005647152196615934, -0.00646746763959527, -0.004010708536952734, 0.0068397666327655315, 0.000774205254856497, -0.016549794003367424, -0.0095113106071949, 0.003378805937245488, 0.007145426236093044, 0.010404391214251518, -0.007540909107774496, -0.006820619571954012, 0.004378838464617729}, {0.10576429218053818, 0.027238350361585617, -0.017118249088525772, 0.02652095817029476, -0.015369544737040997, 0.023407267406582832, -0.059465114027261734, 0.021290021017193794, 0.0072967130690813065, -0.02881830371916294, 0.05602428317070007, -0.04619607329368591, -0.0172966830432415, 0.09469882398843765, 0.011741033755242825, -0.006358581129461527, -0.00043514693970791996, -0.09779267758131027, -0.06215918809175491, -0.012125298380851746, -0.0004181629919912666, -0.040756452828645706, -0.015228258445858955, 0.06145612522959709, -0.06254585832357407, 0.15033788979053497, -0.00410734536126256, -0.024146011099219322, 0.03166083246469498, 0.025581706315279007, 0.02202800288796425, 0.011127518489956856, 0.003588687162846327, -0.030152373015880585, 0.044581152498722076, -0.012466506101191044, 0.03381257876753807, -0.04879125580191612, -0.001923299627378583, 0.03782562166452408, 0.03471922129392624, -0.06487450003623962, 0.024529408663511276, -0.00888893473893404, 0.018300900235772133, 0.0043299151584506035, 0.055837105959653854, 0.02300136536359787, 0.03191148489713669, 0.09157845377922058, -0.022208528593182564, -0.0026681628078222275, 0.000887586735188961, -0.0066046565771102905, 0.00712957140058279, -0.01826978474855423, -0.004971637390553951, -0.06445155292749405, -0.021698636934161186, 0.07756151258945465, 0.001919901231303811, 0.12230126559734344, 0.01530240848660469, -0.00864427164196968, -0.028560159727931023, 0.025775201618671417, -0.1707141250371933, -0.04210139811038971, -0.037088409066200256, -0.02946511283516884, 0.017020301893353462, -0.01193576492369175, 0.010088406503200531, 0.0033108440693467855, 0.0028316257521510124, -0.0114178117364645, -0.01659580133855343, 0.01698153465986252, -0.01886838488280773, -0.04159215837717056, -0.04978456720709801, 0.019835660234093666, -0.001929607824422419, -0.01428651250898838, 0.14260341227054596, -0.017668170854449272, 0.04893730208277702, 0.00928786862641573, -0.05337264761328697, -0.014284894801676273, 0.01157816220074892, 0.0069136908277869225, -0.009478389285504818, -0.011547347530722618, -0.03699706122279167, 0.021358231082558632, 0.02204202301800251, -0.0058379205875098705, -0.02687048353254795, -0.06411037594079971}, {0.030841335654258728, 0.07033413648605347, -0.0036270308773964643, 0.0287609975785017, -0.013670404441654682, 0.03894159197807312, 0.04364149644970894, -0.0052283997647464275, -0.039068713784217834, 0.009433791972696781, -0.0048570893704891205, -0.042869582772254944, 0.005293742753565311, 0.05476339906454086, 0.05000672489404678, -0.008314528502523899, 0.0023761149495840073, -0.0699230432510376, -0.06312481313943863, -0.024049941450357437, 0.009082327596843243, -0.01157546229660511, -0.03345438465476036, -0.00042151001980528235, -0.04127901792526245, -0.01473374105989933, 0.04201991856098175, 0.03976317495107651, 0.02545369230210781, -0.04989593103528023, -0.05988605320453644, 0.10734155774116516, 0.044818103313446045, -0.02921213023364544, 0.0009044933249242604, -0.0741053968667984, 0.009788543917238712, 0.11752183735370636, -0.016947271302342415, -0.10396569967269897, -0.022505465894937515, -0.005397277884185314, 0.030034653842449188, -0.0193118155002594, -0.00165737874340266, 0.03428342565894127, 0.05225721001625061, -0.007233157753944397, 0.0660550445318222, 0.013828326016664505, 0.008125996217131615, 0.018365461379289627, 0.012136385776102543, 0.12268422544002533, 0.009649201296269894, -0.05104920640587807, 0.0450393371284008, -0.00959173496812582, 0.051732759922742844, 0.009873486123979092, 0.04982748627662659, -0.07977510243654251, 0.07240656763315201, 0.02007771097123623, -0.019719267264008522, -0.009849690832197666, 0.014006713405251503, -0.002073216252028942, -0.05309852957725525, -0.011595296673476696, 0.016951382160186768, 0.018617207184433937, 0.01160036213696003, 0.013240629807114601, 0.030230427160859108, -0.005090200807899237, 0.028695570304989815, 0.012680002488195896, -0.02730976976454258, -0.028489837422966957, -0.06250439584255219, -0.009748236276209354, 0.07704950869083405, -0.08467363566160202, 0.07193140685558319, 0.06686938554048538, 0.04521994665265083, 0.03527165949344635, 0.008243421092629433, -0.08548235148191452, 0.002027709735557437, 0.02498985081911087, -0.039956070482730865, -0.00037058928865008056, 0.024414565414190292, 0.06474453210830688, 0.010067598894238472, -0.01635989360511303, -0.048174865543842316, -0.07897857576608658}, {-0.042852237820625305, -0.06515512615442276, -0.012136739678680897, -0.04486143961548805, 0.02850470505654812, -0.07640857249498367, -0.04959797486662865, -0.021350717172026634, 0.03263271227478981, -0.031920164823532104, 0.020809084177017212, 0.0016628534067422152, -0.02784460037946701, -0.09485917538404465, -0.028396770358085632, 0.01310382317751646, 0.05049993470311165, 0.07120219618082047, 0.036164652556180954, 0.017661163583397865, -0.05019508674740791, 0.02838917076587677, 0.005918050184845924, 0.08639812469482422, 0.027219625189900398, 0.13525591790676117, -0.02423800900578499, -0.05573394149541855, 0.05471064895391464, 0.08079159259796143, 0.11291219294071198, -0.13120044767856598, -0.05581117048859596, 0.059839703142642975, 0.0008716934826225042, 0.05649814382195473, 0.0031833997927606106, -0.13712134957313538, 0.04114953428506851, 0.10294497758150101, 0.13634128868579865, -0.05578118562698364, -0.05729350820183754, 0.01402598712593317, 0.0595301054418087, -0.027799129486083984, -0.01464115921407938, 0.015590671449899673, -0.05614910647273064, 0.022344117984175682, -0.04262180253863335, -0.011509640142321587, -0.0036844052374362946, -0.17381873726844788, -0.00853443518280983, 0.06007739156484604, -0.02091609500348568, -0.0023841913789510727, -0.05379733815789223, 0.023848872631788254, -0.04442226141691208, 0.1338575929403305, -0.05405860021710396, -0.05462716519832611, -0.01172458566725254, 0.022028226405382156, -0.047047004103660583, -0.021935831755399704, 0.03908783942461014, 0.02248615212738514, -0.027591576799750328, -0.020240195095539093, -0.014766874723136425, -0.005705385003238916, 0.012064247392117977, 0.0050054979510605335, -0.02577497437596321, 0.02589382417500019, 0.058820195496082306, -0.0007745681214146316, 0.02512207068502903, 0.02205938659608364, -0.07344696670770645, 0.10115962475538254, -0.027493732050061226, -0.11548915505409241, -0.07704384624958038, 0.004597087856382132, -0.027366604655981064, 0.09285779297351837, -0.0011018451768904924, -0.025802507996559143, 0.04523062705993652, 0.04727815091609955, -0.035746339708566666, -0.05176722630858421, 0.01994124986231327, 0.029584137722849846, 0.04840344563126564, 0.11575615406036377}, {0.009734145365655422, -0.0028122439980506897, -0.008134197443723679, -0.029667530208826065, 0.04515674337744713, 0.02559475786983967, 0.05038261413574219, 0.02962079830467701, 0.017969993874430656, 0.03784412890672684, -0.019717128947377205, -0.018697872757911682, -0.02790796384215355, 0.06956171989440918, -0.033715710043907166, -0.0009456279803998768, -0.031026892364025116, -0.025752076879143715, -0.0440962053835392, -0.013469740748405457, -0.035836976021528244, -0.047923002392053604, 0.02768230438232422, 0.01590115576982498, -0.05381746590137482, -0.030111385509371758, -0.03546668961644173, -0.020331474021077156, 0.03425629436969757, 0.04984641075134277, 0.03702983632683754, 0.045945845544338226, 0.029216524213552475, -0.064824178814888, 0.026622293516993523, 0.009710420854389668, 0.027381598949432373, -0.02535691298544407, -0.008168785832822323, -0.05281665176153183, -0.03792601451277733, -0.032017819583415985, -0.01559330802410841, 0.02046988345682621, 0.00560325663536787, -0.011915268376469612, -0.0003179732884746045, -0.012559586204588413, -0.012019561603665352, -0.012554371729493141, 0.010916443541646004, 0.018037525936961174, -0.034854456782341, -0.01960659585893154, 0.03411456197500229, 0.0023772993590682745, -0.041514135897159576, 0.031060829758644104, -0.023347223177552223, 0.02258412353694439, -0.0007940504001453519, -0.04073195159435272, 0.03186359629034996, 0.03659836947917938, 0.011504575610160828, -0.012860176153481007, 0.013758008368313313, 0.006450620014220476, -0.017484428361058235, -0.012467366643249989, 0.002200966700911522, -0.01575315184891224, -0.0013487263349816203, -0.01571270078420639, -0.03327025845646858, -0.0033584849443286657, 0.03022909164428711, 0.0022284395527094603, -0.031466707587242126, 0.04247894883155823, 0.04680102318525314, -0.020368732511997223, -0.03166542947292328, -0.034243982285261154, 0.005021024961024523, 0.05790836736559868, -0.0004134727059863508, -0.03230714425444603, 0.017288370057940483, -0.021316995844244957, 0.0056625972501933575, 0.047322776168584824, -0.036093056201934814, -0.000966217543464154, 0.008928965777158737, -0.012811779044568539, 0.014203804545104504, -0.023826144635677338, 0.000316882535116747, 8.712908311281353e-05}, {-0.09272170811891556, -0.007355925161391497, 0.0034906044602394104, -0.03908168524503708, 0.035576097667217255, 0.008560577407479286, 0.01008147094398737, -0.012602966278791428, 0.08504997938871384, 0.02722712606191635, -0.035457316786050797, -0.008716418407857418, 0.008194281719624996, 0.02190498262643814, 0.013186615891754627, 0.044077228754758835, 0.041571442037820816, 0.04253564029932022, 0.02626178413629532, 0.028709465637803078, -0.02266295626759529, -0.03232467547059059, -0.00709490105509758, 0.00028045932413078845, -0.08438222855329514, 0.07733850181102753, 0.0033168229274451733, 0.04561067372560501, 0.051893673837184906, -0.005586062557995319, -0.029871666803956032, -0.005687772296369076, -0.03221066668629646, -0.05151207000017166, -0.01233505830168724, -0.004058145452290773, 0.030118247494101524, 0.10209058970212936, 0.013349922373890877, -0.06491483002901077, -0.12343757599592209, 0.014662411995232105, -0.015470774844288826, 0.005554527044296265, -0.03445783257484436, -0.027271687984466553, -0.006447461433708668, 0.022994035854935646, 0.006843165494501591, 0.05291970446705818, -0.08633340150117874, -0.016918839886784554, 0.02419550158083439, 0.06966880708932877, 0.005776469595730305, -0.034587714821100235, -0.015748770907521248, -0.0973641499876976, -0.006129320245236158, -0.039200760424137115, -0.0028652416076511145, -0.02474312297999859, 0.010467357002198696, 0.017149686813354492, 0.021621262654662132, -0.010901390574872494, 0.12249450385570526, -0.0018848334439098835, 0.06742570549249649, 0.024184443056583405, -0.034299690276384354, -0.025460243225097656, -0.002337817568331957, 0.000822177273221314, -0.027889467775821686, 0.06035631150007248, -0.022692717611789703, 0.010136070661246777, -0.036370087414979935, 0.025008240714669228, -0.001960817025974393, 0.0768103078007698, 0.018423134461045265, -0.039430923759937286, -0.035742733627557755, -0.007409198675304651, -0.016764836385846138, 0.03202448785305023, 0.024513496086001396, -0.010151289403438568, 0.003916869405657053, -0.04328847676515579, -0.034550394862890244, 0.029342904686927795, -0.0006317978841252625, -0.09503588825464249, 0.04627247899770737, -0.020988358184695244, -0.03663802519440651, -0.1294301450252533}, {0.07734588533639908, -0.04073289409279823, 0.03333992511034012, -0.028715314343571663, -0.03811751678586006, -0.015047729946672916, 0.08492998033761978, -0.015059303492307663, -0.05736606568098068, 0.05842326208949089, -0.040773190557956696, 0.013393819332122803, -0.016409818083047867, 0.1053406149148941, 0.01586521975696087, -0.07920008152723312, 0.007893363945186138, -0.1155652105808258, -0.03989894315600395, 0.009475842118263245, -0.01425956655293703, 0.031856123358011246, -0.018488949164748192, -0.01031024381518364, -0.11661221832036972, -0.14071819186210632, 0.009831580333411694, 0.057647038251161575, -0.03213806077837944, -0.030066724866628647, -0.013050263747572899, 0.0145088080316782, 0.04419631510972977, 0.016585536301136017, 0.029365260154008865, -0.03492095693945885, -0.0594525970518589, 0.09233083575963974, 0.0060956659726798534, -0.07100819051265717, -0.05887911468744278, -0.02071647346019745, -0.02476203814148903, -0.02565634995698929, -0.045309506356716156, 0.033239495009183884, -0.0063506849110126495, -0.03915907070040703, -0.015319187194108963, -0.022470718249678612, 0.06261226534843445, 0.024353256449103355, -0.016365831717848778, 0.07311560213565826, 0.007328557316213846, 0.045450981706380844, 0.029089350253343582, -0.052554357796907425, 0.019971122965216637, 0.05668341740965843, 0.119999960064888, -0.09150859713554382, 0.009392349049448967, -0.003658877220004797, 0.05235334858298302, -0.03827982768416405, 0.08402029424905777, 0.03651018068194389, -0.09827961027622223, 0.023289833217859268, 0.13628171384334564, 0.044559162110090256, 0.08572667092084885, -0.05677495524287224, 0.03106776438653469, 0.08120124042034149, 0.052949339151382446, -0.0037917655427008867, -0.09539704024791718, 0.004521417431533337, 0.001982634188607335, -0.021238068118691444, 0.021995000541210175, -0.09132766723632812, 0.11874181777238846, 0.0362849198281765, -0.00955661665648222, 0.031229475513100624, 0.06815384328365326, 0.04019860550761223, -0.030454065650701523, 0.07072727382183075, 0.07230227440595627, 0.010245714336633682, 0.05081261694431305, 0.11618240922689438, -0.10041888803243637, 0.021354254335165024, 0.03856392577290535, -0.13703741133213043}, {-0.09321359544992447, 0.07087943702936172, -0.045353978872299194, 0.08076810836791992, 0.06547509878873825, 0.058396656066179276, -0.03960732743144035, 0.028491901233792305, 0.1162751168012619, -0.07412826269865036, 0.04167516157031059, 0.01650424301624298, 0.0460028238594532, 0.04142681881785393, -0.01096186414361, 0.049262773245573044, -0.0042664469219744205, 0.14867205917835236, 0.05536023899912834, 0.03624711185693741, 0.028141526505351067, -0.0850558876991272, 0.016736984252929688, -0.08484958857297897, 0.06004486605525017, 0.12646684050559998, -0.009486799128353596, -0.009572044014930725, -0.018426183611154556, -0.08200032263994217, 0.030929632484912872, -0.03112672083079815, -0.027740871533751488, -0.08714178949594498, -0.056685641407966614, 0.0043586851097643375, 0.08375223726034164, 0.0814647227525711, -0.009417962282896042, 0.046045925468206406, 0.003151891054585576, 0.06180829182267189, 0.05119578167796135, 0.009100840426981449, 0.006756533868610859, -0.03757217898964882, -0.02417980507016182, 0.05175095051527023, 0.10393465310335159, 0.03929038345813751, -0.15506310760974884, -0.050244592130184174, 0.09287440031766891, 0.06778369098901749, -0.05245017632842064, -0.126369446516037, 0.0023175717797130346, 0.02807869389653206, -0.0028738882392644882, -0.0835869312286377, -0.1187356635928154, 0.05422072112560272, -0.018569013103842735, 0.055526718497276306, -0.03961510956287384, 0.034482114017009735, -0.0030095132533460855, -0.022623848170042038, 0.11846219748258591, -0.03947354853153229, -0.15345114469528198, -0.027475792914628983, -0.09666547924280167, 0.04295893758535385, -0.03973401337862015, -0.03899502381682396, -0.0708141028881073, -0.07384919375181198, 0.0558975525200367, 0.038748156279325485, -0.002756903413683176, 0.07428586483001709, -0.006107221823185682, 0.1032109186053276, -0.13569842278957367, -0.013010877184569836, -0.003758850507438183, -0.012816254049539566, -0.08947695046663284, -0.0466395728290081, 0.0096548767760396, -0.049111802130937576, -0.0794190987944603, -0.014553158544003963, -0.05649981647729874, -0.1304827779531479, 0.08555502444505692, -0.06100456416606903, -0.11275670677423477, 0.05907337740063667}, {-0.012305304408073425, 0.0012860631104558706, 0.07264090329408646, 0.09262357652187347, 0.016233056783676147, 0.02800215408205986, -0.03767549991607666, 0.009511617012321949, -0.0004332214593887329, -0.06577007472515106, -0.07072415947914124, 0.23498842120170593, 0.02301795221865177, 0.05407429113984108, 0.011760354973375797, -0.13636250793933868, -0.010661843232810497, 0.012154719792306423, 0.0609777495265007, 0.11887993663549423, 0.06299805641174316, -0.08418721705675125, -0.03400327265262604, -0.09681937098503113, -0.14065906405448914, 0.03232185170054436, -0.02595852129161358, 0.016329456120729446, -0.23638993501663208, -0.08583137392997742, -0.16196537017822266, -0.060996364802122116, -0.09440170228481293, -0.011536761187016964, -0.03615066781640053, 0.0515032522380352, -0.022835135459899902, 0.05525612458586693, -0.04335349053144455, 0.020473573356866837, -0.05185382440686226, 0.059010859578847885, 0.04720405861735344, -0.001927789649926126, -0.2382405698299408, -0.027559960260987282, -0.14962051808834076, -0.0003583173092920333, 0.031953372061252594, 0.038588862866163254, 0.03611185774207115, -0.05556734651327133, 0.03580279275774956, 0.18035408854484558, -0.15578515827655792, 0.026302216574549675, -0.004599939566105604, 0.060338057577610016, -0.11878370493650436, 0.050775863230228424, -0.05987556278705597, -0.00652901828289032, -0.11341466754674911, 0.054949771612882614, 0.11286517232656479, -0.06896860897541046, -0.01706000417470932, 0.08084502816200256, 0.04580588638782501, -0.03590422868728638, 0.020437272265553474, 0.08174250274896622, 0.041875291615724564, -0.06905749440193176, -0.048578791320323944, -0.0011061013210564852, -0.028853094205260277, -0.18370260298252106, 0.08856775611639023, -0.021796323359012604, -0.0801146999001503, 0.09227116405963898, -0.12644389271736145, 0.046059802174568176, 0.044966328889131546, -0.021066706627607346, 0.09946627914905548, 0.031237609684467316, 0.0033499726559966803, -0.02247997559607029, -0.08828987181186676, -0.06518377363681793, 0.07171259075403214, -0.0951804593205452, -0.0006430273060686886, 0.0015912135131657124, -0.0634312778711319, -0.05936300382018089, -0.0037491326220333576, -0.011821829713881016}};
static float RNN_INPUT_BIASES[HIDDEN_SIZE] = {-0.04659827798604965, -0.002090476220473647, 0.009791271761059761, 0.06733697652816772, -0.010137188248336315, -0.024292951449751854, 0.005617336370050907, -0.042690061032772064, 0.047595590353012085, 0.011344574391841888, -0.033899348229169846, 0.009181327186524868, 0.025881381705403328, -0.06345668435096741, 0.12344831228256226, -0.018266204744577408, 0.0010551242157816887, 0.008797421120107174, -0.051170554012060165, -0.03295298293232918, 0.03400123864412308, 0.02641538716852665, -0.09376263618469238, 0.03999250382184982, 0.012453445233404636, 0.11264477670192719, 0.08107846230268478, -0.008479954674839973, 0.007787346374243498, -0.0933045893907547, -0.061535757035017014, 0.03923652321100235, 0.040746886283159256, -0.003298406954854727, -0.005222077947109938, -0.030745841562747955, 0.07774683833122253, 0.10822726041078568, -0.04241388663649559, -0.011458669789135456, -0.03241759538650513, 0.006393124349415302, 0.021118711680173874, -0.084696926176548, -0.005386986769735813, 0.034973468631505966, 0.007175687700510025, 0.031586628407239914, -0.03249518200755119, 0.032093461602926254, -0.03138960152864456, -0.0015091757522895932, -0.05197080224752426, -0.02770110033452511, 0.04477124661207199, -0.012222763150930405, 0.08990397304296494, -0.024883506819605827, 0.0722069963812828, -0.07742290943861008, 0.01332460343837738, 0.006597221363335848, -0.006000969558954239, -0.08268710970878601, -0.013267815113067627, -0.027009088546037674, 0.011050904169678688, 0.005473843775689602, 0.02784642018377781, -0.018001900985836983, -0.12040964514017105, 0.056781940162181854, 0.01038175169378519, 0.04242885112762451, 0.0580652579665184, -0.005750271957367659, -0.0561160147190094, -0.03610807657241821, -0.01397628989070654, -0.055083855986595154, -0.08637917786836624, -0.020807579159736633, 0.04569149762392044, 0.045482978224754333, 0.013162896037101746, 0.006832491606473923, 0.0240438561886549, 0.10967912524938583, -0.026098955422639847, -0.06893114745616913, -0.017797313630580902, -0.006838218308985233, -0.004315143451094627, 0.031389057636260986, 0.04903865605592728, -0.02855376899242401, -0.07472759485244751, 0.07614053040742874, -0.015935972332954407, 0.046994648873806};
static const float RNN_HIDDEN_WEIGHTS_TRANSPOSED[HIDDEN_SIZE][HIDDEN_SIZE] = {{0.08549246937036514, -0.0246793981641531, -0.019870443269610405, 0.011886476539075375, -0.03282611444592476, -0.04444808512926102, 0.037392888218164444, 0.0031399375293403864, -0.04807179048657417, 0.036251138895750046, -0.00874630268663168, 0.027650956064462662, -0.00788571871817112, 0.059891413897275925, 0.003926327917724848, -0.04663991183042526, -0.03818444535136223, -0.034547802060842514, -0.06097107008099556, -0.0029669632203876972, 0.027824586257338524, -0.008896463550627232, -0.009857368655502796, -0.02300753816962242, -0.041874662041664124, -0.05295326188206673, -0.014905402436852455, 0.00435593631118536, -0.02785314805805683, 0.03452342376112938, 0.027913101017475128, 0.03454282507300377, 0.018024899065494537, 0.005351203493773937, -0.0072814165614545345, 0.006227717734873295, -0.04456884413957596, -0.04256700724363327, -0.008359505794942379, -0.037727441638708115, 0.0026522199623286724, 0.001275068148970604, -0.01720864698290825, 0.022425489500164986, -0.07462351024150848, 0.012225674465298653, 0.005675606895238161, -0.01988634653389454, -0.026665229350328445, -0.0019605134148150682, 0.08832912892103195, 0.03281938657164574, -0.009799066931009293, -0.04633551090955734, 0.0040575177408754826, -0.006745463702827692, -0.03088025376200676, -0.01758638769388199, -0.01042309682816267, 0.0033078771084547043, 0.028419073671102524, 0.023633133620023727, -0.018030114471912384, -0.030931858345866203, 0.015485108830034733, -0.006336310412734747, -0.00421850336715579, -0.016244400292634964, -0.06214012950658798, 0.005558394826948643, 0.027387496083974838, 0.02844192087650299, 0.028881549835205078, -0.0374097116291523, 0.0341985784471035, 0.020092442631721497, 0.025429600849747658, 0.006582988891750574, 0.023961054161190987, -0.02032162994146347, -0.025163326412439346, -0.02655838057398796, 0.013708450831472874, -0.07381420582532883, 0.05096269026398659, 0.07072333991527557, 0.006135950796306133, -0.009522355161607265, 0.05384501442313194, -0.0030198164749890566, -0.022408127784729004, 0.019980937242507935, 1.8270580767421052e-05, -0.027764083817601204, 0.027821475639939308, 0.04784959554672241, -0.05586617439985275, 0.03543587774038315, 0.040598612278699875, 0.01861143298447132}, {-0.03551816940307617, 0.05189512297511101, -0.004773861262947321, -0.018995771184563637, 0.020671231672167778, 0.0507897213101387, 0.022938134148716927, -0.0034612417221069336, 0.009653089568018913, -0.028842998668551445, 0.012941624969244003, -0.028915753588080406, -0.02236138842999935, 0.0070373243652284145, 0.006279338151216507, -0.0022738128900527954, 0.00684014055877924, 0.012205458246171474, 0.017833581194281578, -0.018131878226995468, -0.006286170799285173, -0.024366308003664017, 0.005423237103968859, 0.01205175369977951, 0.026201291009783745, 0.019756758585572243, 0.006467859726399183, 0.0317782387137413, -0.009761174209415913, -0.040471117943525314, -0.044533416628837585, 0.019343378022313118, 0.019243553280830383, -0.039865270256996155, 0.023508287966251373, -0.011022865772247314, 0.03795667737722397, 0.028468823060393333, -0.01869792863726616, 0.03149787336587906, 0.03479813039302826, -0.026701761409640312, 0.031050311401486397, -0.019327398389577866, -0.028851712122559547, -0.023868678137660027, 0.003363237716257572, 0.022271787747740746, 0.04437486454844475, 0.009808195754885674, -0.04253434017300606, -0.005293149501085281, -0.022625237703323364, 0.03913708031177521, 0.0014022045070305467, -0.03890177980065346, 0.013392790220677853, -0.013432222418487072, 0.010607521049678326, -0.012560621835291386, 0.017862500622868538, 0.009661762043833733, 0.05382820963859558, 0.03995369002223015, -0.020881017670035362, 0.01417001523077488, -0.015754880383610725, -0.0035294925328344107, 0.0017778550973162055, -0.00865706242620945, -0.008786264806985855, -0.03195573389530182, 0.0029942519031465054, -0.0009906726190820336, -0.04570009559392929, -0.0017144880257546902, -0.04315246641635895, 0.01925298199057579, -0.05066404491662979, 0.022386690601706505, -0.009535154327750206, -0.0001409359829267487, 0.0037899124436080456, -0.03062210977077484, -0.0035990909673273563, 0.045694541186094284, 0.037173040211200714, 0.003055567853152752, -0.0456874705851078, -0.028669891878962517, 0.01653892546892166, 0.01615902967751026, -0.044450581073760986, 0.018649399280548096, -0.0293930284678936, 0.005699486006051302, 0.010224880650639534, -0.030769841745495796, -0.043029796332120895, -0.015235258266329765}, {0.00793860200792551, -0.01767946407198906, 0.09188809245824814, 0.013321499340236187, 0.006976754404604435, 0.0005299827316775918, -0.012622781097888947, 0.03833040967583656, 0.026536790654063225, 0.026581207290291786, -0.06763290613889694, 0.06852996349334717, -0.021417349576950073, 0.06253151595592499, 0.03389553725719452, -0.037598617374897, -0.006957755424082279, 0.008142524398863316, -0.04277711361646652, 0.007727500516921282, -0.035663921386003494, -0.002330023329705, -0.03185868263244629, 0.025385551154613495, -0.03644851967692375, 0.02593361772596836, 0.04399583116173744, -0.025358257815241814, 0.01675240695476532, -0.02284322865307331, 0.06607301533222198, -0.05593395233154297, -0.010492856614291668, -0.008085792884230614, -0.001691865036264062, 0.00584759097546339, -0.028874358162283897, 0.017806651070713997, -0.02101888880133629, 0.018798677250742912, 0.07283153384923935, -0.04912090674042702, 0.022944375872612, -0.048132121562957764, 0.04460705444216728, 0.04949909821152687, -0.0627182349562645, -0.0719035342335701, -0.020932497456669807, -0.0338703989982605, -0.0808819979429245, 0.013741889037191868, -0.028562817722558975, -0.06327460706233978, 0.008284107781946659, 0.0031873309053480625, 0.05210580676794052, 0.002200996270403266, 0.01076035387814045, -0.015762751922011375, -0.03371475636959076, 0.02384071983397007, -0.029883669689297676, 0.021150413900613785, 0.0615248866379261, -0.07397865504026413, -0.054415348917245865, 0.07930243015289307, 0.006177023518830538, -0.01615665666759014, 0.013402624987065792, 0.0476570688188076, 0.0062725436873734, -0.017112815752625465, -0.049116332083940506, -0.05675165727734566, 0.07569950073957443, -0.07061531394720078, -0.022612540051341057, 0.0026854996103793383, -0.003882416756823659, -0.03730538859963417, -0.012738910503685474, 0.09725266695022583, -0.036567386239767075, -0.11481766402721405, -0.017172835767269135, 0.058213528245687485, 0.02554176189005375, 0.05018800124526024, -0.04269569367170334, 0.018761146813631058, 0.011330400593578815, -0.03388791158795357, 0.04529527947306633, -0.03151380643248558, -0.011526871472597122, -0.022462448105216026, -0.01617106795310974, 0.04188878834247589}, {-0.015942011028528214, -0.01316648069769144, 0.033830076456069946, 0.11126137524843216, -0.043807920068502426, -0.02057705633342266, -0.03285106644034386, 0.003790595568716526, 0.014883670955896378, 0.002341665094718337, 0.0018108352087438107, 0.07113950699567795, 0.054632771760225296, -0.009043468162417412, 0.04070688411593437, -0.0034596011973917484, -0.04049299284815788, 0.048878997564315796, -0.0036524790339171886, -0.0007650107727386057, 0.07100085914134979, 0.05100993812084198, -0.033937156200408936, -0.034726668149232864, 0.043067820370197296, 0.045418187975883484, 0.04630274325609207, -0.018552158027887344, -0.06514427810907364, -0.05409518629312515, -0.01262668613344431, 0.017379289492964745, -0.012768098153173923, 0.025205254554748535, -0.05102609843015671, -0.019329138100147247, -0.03419516608119011, 0.003299144096672535, -0.0006841887952759862, 0.009851912967860699, -0.06188882514834404, 0.055587999522686005, 0.013081044889986515, -0.009040824137628078, -0.0057573807425796986, 0.06427448987960815, -0.032631829380989075, -0.044901348650455475, 0.0010146470740437508, -0.02214907296001911, -0.0647822767496109, 0.023640993982553482, 0.04755628854036331, 0.06187039613723755, -0.025083908811211586, -0.05417869612574577, 0.036433301866054535, 0.012957580387592316, 0.03287256136536598, -0.030063988640904427, -0.0473027378320694, -0.03779197484254837, -0.0837177261710167, -0.06324053555727005, 0.019472168758511543, -0.030133971944451332, 0.009636941365897655, 0.03624589741230011, 0.05005503445863724, 0.004755289759486914, -0.02230588160455227, 0.04103230684995651, -0.035935062915086746, 0.04001789167523384, 0.032429784536361694, -0.022333942353725433, 0.04682276397943497, -0.07377850264310837, -0.014999771490693092, -0.05146829038858414, -0.03891027718782425, 0.002690425608307123, 0.01868034526705742, 0.03970647603273392, -0.004033864475786686, 0.028217347338795662, -0.014333797618746758, 0.029589112848043442, 0.030781390145421028, -0.009655258618295193, -0.025653114542365074, -0.04723586514592171, -0.015801670029759407, -0.058007705956697464, 0.04605042561888695, -0.03946240618824959, 0.011716707609593868, 0.014927811920642853, 0.0026605804450809956, 0.06073390692472458}, {-0.04826614260673523, 0.022084705531597137, -0.0021450526546686888, -0.03002292290329933, 0.04126778244972229, 0.03143596649169922, 0.008364707231521606, 0.024922050535678864, 0.03631095215678215, -0.017781175673007965, 0.017270447686314583, 0.0038016915787011385, -0.0010021718917414546, -0.022525308653712273, -0.03504694998264313, -0.0245809368789196, -0.006743667647242546, 0.010471158660948277, 0.0019485162338241935, 0.01584450714290142, -0.02452046424150467, -0.04145439341664314, 0.039768021553754807, 0.029270635917782784, 0.043107107281684875, -0.028170432895421982, -0.03490320220589638, -0.019665716215968132, -0.010816847905516624, 0.0032463569659739733, 0.023769458755850792, 0.00971935223788023, -0.021376021206378937, -0.015763970091938972, 0.002427046187222004, 0.010391972959041595, 0.04180923476815224, 0.01329141017049551, -0.020199982449412346, -0.0012616284657269716, -0.062350548803806305, -0.0017569062765687704, -0.014897186309099197, 0.025188880041241646, 0.013539131730794907, -0.05268962308764458, 0.0005779096391052008, 0.021765731275081635, 0.011382822878658772, 0.009367304854094982, -0.007741168141365051, 0.0023271769750863314, 0.03203766420483589, -0.043590087443590164, 0.007818254642188549, -0.00042996584670618176, -0.03571420907974243, 0.043664250522851944, -0.0406905934214592, 0.014195268042385578, 0.020364152267575264, 0.040206871926784515, 0.016876043751835823, 0.052303265780210495, -0.019279982894659042, 0.015646548941731453, 0.02396911196410656, -0.00306984456256032, 0.04996039718389511, -0.0158467385917902, -0.0030210381373763084, -0.028088700026273727, 0.0035658685956150293, 0.0034204532857984304, -0.03862844035029411, -0.005243806168437004, -0.05233792960643768, 0.007931775413453579, -0.03167742118239403, 0.04046502709388733, 0.0494198314845562, 0.008265068754553795, -0.056853510439395905, 0.02876725047826767, -0.03656915947794914, 0.012981915846467018, 0.0018804026767611504, -0.030863789841532707, -0.051380522549152374, 0.001337185618467629, 0.03361126407980919, 0.020145472139120102, -0.014756840653717518, -0.03396956995129585, -0.03616655617952347, -0.005750523880124092, 0.046445850282907486, -0.030812524259090424, -0.020904548466205597, 0.0025378165300935507}, {-0.006898950785398483, 0.06412845849990845, -0.0005767041584476829, -0.010358422063291073, 0.01944950595498085, 0.07205808907747269, 0.015233938582241535, 0.03937070444226265, 0.02214774116873741, -0.04079246520996094, 0.02526293322443962, -0.0336410328745842, -0.009053152054548264, 0.07642722129821777, -0.005043186713010073, 0.0006613537552766502, -0.01662268117070198, -0.007292855065315962, -0.015042941085994244, 0.018247583881020546, 0.0026834639720618725, -0.05677931755781174, 0.016092408448457718, -0.01283162459731102, -0.027226774021983147, -0.025849109515547752, 0.00027337457868270576, 0.014837421476840973, 0.015767956152558327, -0.03545474261045456, -0.05786258354783058, 0.03794369101524353, 0.0011433317558839917, -0.04784710705280304, 0.022928999736905098, -0.016345152631402016, 0.03256736323237419, 0.024074934422969818, -0.011484354734420776, -0.009623830206692219, -0.05487246438860893, -0.024743979796767235, 0.02745700255036354, -0.008744942955672741, -0.04554872214794159, -0.004714769311249256, -0.0025812252424657345, 0.011770865879952908, 0.06255719065666199, 0.012685073539614677, -0.04836888238787651, 0.009374654851853848, 0.004053593147546053, -0.021291814744472504, 0.01232129242271185, -0.07162237167358398, 0.007092665880918503, 0.041643571108579636, -0.00861877016723156, -0.019832735881209373, -0.020941637456417084, -0.018263839185237885, 0.04628942906856537, 0.056019242852926254, -0.027882292866706848, 0.0111168147996068, -0.0260604377835989, 0.002264699898660183, 0.012801933102309704, -0.011850313283503056, -0.02776852436363697, -0.01846626028418541, -0.037937819957733154, 0.004579233005642891, -0.054434407502412796, -0.04029374569654465, -0.0095856674015522, -0.01655718684196472, -0.010310444049537182, 0.03330240398645401, 0.016838498413562775, 0.019071480259299278, 0.00718838581815362, -0.007778449449688196, -0.03181256726384163, 0.004525071009993553, 0.04848096892237663, -0.008437640964984894, -0.04638173431158066, -0.04360523074865341, 0.033326342701911926, 0.020135508850216866, -0.015210668556392193, -0.026098769158124924, -0.028214363381266594, -0.00559907266870141, 0.03876303881406784, -0.04952260106801987, -0.05910751223564148, -0.007359580136835575}, {0.016242993995547295, 0.010120480321347713, 0.026419946923851967, -0.012032905593514442, 0.008620696142315865, 0.010172480717301369, 0.03928894177079201, 0.03231309354305267, -0.00024836312513798475, 0.03525003790855408, -0.017461614683270454, -0.01859482191503048, -0.026733234524726868, 0.03914526104927063, -0.005429071839898825, 0.0035321894101798534, -0.031022675335407257, -0.03354163467884064, -0.031509172171354294, -0.01642669178545475, -0.015376347117125988, -0.0144222816452384, 0.010312194004654884, -0.015433684922754765, -0.0031927907839417458, -0.02948048897087574, 0.0039449818432331085, -0.016805944964289665, 0.019071433693170547, 0.012422631494700909, 0.026820672675967216, 0.0345073863863945, 0.02320146933197975, -0.028615444898605347, 0.004747835453599691, -0.011747879907488823, -0.00014501111581921577, -0.004567074589431286, -0.0036444771103560925, -0.05598626658320427, -0.02926160953938961, -0.028044918552041054, -0.006710050627589226, -0.005587128456681967, 0.008263288997113705, 0.027944648638367653, 0.0032226077746599913, -0.02414356730878353, 0.009404828771948814, -0.016346735879778862, 0.01512738037854433, 0.029624488204717636, -0.032469455152750015, -0.03558747470378876, 0.022653207182884216, -0.03242620825767517, 0.007453756406903267, 0.017990661785006523, 0.013484668917953968, -0.001752224750816822, 0.0015774357598274946, -0.02602735161781311, 0.02902592159807682, 0.020999183878302574, -0.009890099987387657, -0.009718789719045162, -0.025398459285497665, 0.011492069810628891, 0.0017818690976127982, -0.0009328855667263269, 0.0005021514371037483, -0.003452108707278967, -0.0003887390485033393, -0.017099084332585335, -0.015312758274376392, -0.004804997239261866, 0.02307222969830036, 0.01800582744181156, -0.03642702475190163, 0.03077022172510624, 0.03575612232089043, -0.024298854172229767, 0.01598673313856125, -0.03161409869790077, -0.004626033362001181, 0.04847210645675659, -0.022954441606998444, 0.002286425791680813, 0.023139717057347298, -0.008391143754124641, 0.010363941080868244, 0.039345625787973404, -0.04460912570357323, -0.0217808298766613, 0.03223179653286934, 0.02165388874709606, 0.009080169722437859, -0.009914259426295757, -0.005788691807538271, 0.0100774634629488}, {-0.010556547902524471, 0.012386618182063103, 0.01847909949719906, 0.011634141206741333, 0.01627044565975666, 0.031209414824843407, 0.03000677563250065, 0.047752346843481064, -0.010155623778700829, 0.005211494863033295, 0.003880453994497657, -0.008680110797286034, -0.01783379167318344, 0.07154588401317596, -0.03613597899675369, -0.018085304647684097, -0.03575309365987778, 0.006445125211030245, -0.033386193215847015, 0.000870745861902833, 0.0009814106160774827, -0.033270616084337234, 0.0442936047911644, -0.032095812261104584, -0.003614695742726326, -0.032779794186353683, -0.009385707788169384, -0.03774672746658325, 0.018254173919558525, 0.016806669533252716, 0.0041582705453038216, -0.0038684376049786806, -0.004408098291605711, -0.02321499027311802, 0.0025418673176318407, 0.004416236653923988, -0.004026048816740513, -0.0021809707395732403, 0.00933921430259943, -0.018878977745771408, -0.0695808157324791, -0.027972552925348282, -0.0010948114795610309, 0.022919585928320885, -0.013232134282588959, 0.005233348347246647, -0.028657888993620872, -0.024304786697030067, 0.0017730735708028078, -0.04879932105541229, -0.011572486720979214, 0.0466877743601799, -0.013155469670891762, -0.022906573489308357, -0.011476670391857624, -0.018637072294950485, -0.02346280962228775, 0.01833316870033741, 0.0007540193619206548, -0.03965716063976288, -0.006041581742465496, 0.007569428533315659, -0.018839191645383835, 0.041162554174661636, -0.027701057493686676, -0.0013120361836627126, -0.060429368168115616, 0.01906239055097103, -0.03327973186969757, -0.006623974069952965, -0.0019870707765221596, -0.022091908380389214, -0.0055180820636451244, -0.010026287287473679, -0.032839857041835785, -0.010116898454725742, 0.04695390537381172, -0.021266188472509384, -0.009186874143779278, 0.04687490686774254, 0.0703645721077919, -0.016566434875130653, -0.011852172203361988, 0.012506730854511261, 0.0007990205776877701, -0.013719860464334488, -0.01228527445346117, -0.03476514294743538, 0.006046415772289038, -0.009431451559066772, 0.0272818673402071, 0.0144026605412364, -0.026461942121386528, -0.038505684584379196, 0.010755583643913269, -0.003075557993724942, 0.052316226065158844, -0.03419141098856926, -0.009415187872946262, 0.03204881027340889}, {-0.037821102887392044, 0.0317700132727623, -0.0018530020024627447, -0.023462951183319092, 0.040305547416210175, 0.05199091136455536, 0.00947738066315651, 0.018793392926454544, 0.04371339827775955, -0.04789259284734726, 0.012717163190245628, -0.009705819189548492, -0.008431599475443363, -0.012701133266091347, -0.007744222413748503, 0.019268715754151344, -0.0035512056201696396, 0.00861454475671053, 0.009800807572901249, 0.006063956301659346, -0.011346500366926193, -0.014363239519298077, 0.011971307918429375, -0.01951277069747448, 0.045967090874910355, 0.022820129990577698, 0.00108629884198308, -0.009077202528715134, 0.011485094204545021, -0.020699335262179375, -0.028153449296951294, -0.01868002489209175, -0.009486175142228603, -0.03938303515315056, -0.007644244469702244, 0.0027956385165452957, 0.05303981155157089, 0.02572660893201828, 0.004391277674585581, -0.00814556423574686, 0.016762936487793922, -0.004204560536891222, 0.0005004910635761917, -0.014644904993474483, 0.005604014731943607, -0.00866017211228609, -0.010358636267483234, 0.024944603443145752, 0.03584937006235123, 0.0025568101555109024, -0.049175847321748734, -0.0027877618558704853, 0.032577451318502426, -0.01917131058871746, -0.003941601142287254, -0.012588831596076488, 0.011711126193404198, -0.010690216906368732, 7.777227438054979e-06, -0.013225867412984371, -0.003836683928966522, -0.024648984894156456, 0.015675771981477737, 0.02617701143026352, -0.03525538742542267, 0.009202099405229092, -0.033117588609457016, 0.003087403019890189, 0.043637730181217194, -0.007991462014615536, -0.02925749495625496, -0.02772006019949913, -0.028204170987010002, 0.018872564658522606, -0.018360251560807228, -0.0030884782318025827, -0.03642382472753525, 0.00016131720622070134, 0.0038616855163127184, 0.022384610027074814, 0.0201498381793499, 0.03941358998417854, -0.03075217641890049, 0.055498022586107254, -0.04941032454371452, -0.04605099558830261, -0.012008617632091045, 0.00469569955021143, -0.06889504939317703, -0.023877477273344994, 0.019859585911035538, 0.002287713810801506, -0.010470914654433727, -0.020829470828175545, -0.036390453577041626, -0.025905419141054153, 0.042473554611206055, -0.04086194932460785, -0.03359517455101013, 0.001956392079591751}, {0.0028988756239414215, -0.03678758069872856, 0.022145947441458702, 0.0004357537836767733, -0.00810787733644247, -0.037476036697626114, -0.007341288961470127, 0.03708571568131447, -0.005343733821064234, 0.08941612392663956, -0.05779889225959778, -0.01366041786968708, -0.052980002015829086, 0.005473046563565731, 0.013171028345823288, 0.03315994516015053, -0.040169041603803635, -0.024015843868255615, -0.06066232547163963, -0.023638445883989334, -0.0410325862467289, -0.04379315301775932, -0.010011536069214344, 0.018118320032954216, -0.007187685929238796, 0.01913149654865265, 0.009949575178325176, -0.028003431856632233, 0.04467785358428955, 0.03655502200126648, 0.11720316112041473, 0.026444358751177788, 0.02537861466407776, -0.05095912888646126, 0.030268628150224686, 0.009340919554233551, -0.017475992441177368, -0.0564151406288147, -0.0160538237541914, 0.011049139313399792, 0.014803553931415081, -0.05669668689370155, -0.004698444157838821, -0.015035957098007202, 0.03398684412240982, 0.05032207444310188, -0.004989109002053738, -0.04769620671868324, -0.04105643555521965, -0.007532600779086351, -0.025732407346367836, 0.036676425486803055, -0.057491183280944824, -0.09033937752246857, 0.03343534469604492, 0.03873801231384277, -0.0064940070733428, 0.06647273898124695, 0.006184425670653582, 0.0046655405312776566, -0.016709500923752785, 0.03129539638757706, -0.019382668659090996, 0.020405329763889313, 0.024163881316781044, -0.03053702600300312, -0.0377194806933403, 0.02792956680059433, -0.02243914268910885, -0.006688759662210941, 0.041661858558654785, 0.01781364157795906, 0.027062997221946716, -0.001335797132924199, -0.021905772387981415, -0.04640532657504082, 0.06453051418066025, -0.016318734735250473, 0.0011634506518021226, 0.023017091676592827, 0.02314210869371891, -0.06885098665952682, 0.00012316336506046355, 0.036717068403959274, 0.011260808445513248, -0.06293845176696777, -0.018316401168704033, 0.012319657951593399, 0.05742669105529785, 0.03843716159462929, -0.01685982383787632, 0.03667739778757095, -0.010037381201982498, -0.024360978975892067, 0.06546926498413086, -0.02966473251581192, -0.039614781737327576, 0.028303178027272224, 0.0060535273514688015, 0.07587125897407532}, {0.03673466667532921, 0.011430060490965843, -0.07113637775182724, 0.02208453044295311, -0.02924880012869835, 0.004516292363405228, -0.0038946433924138546, -0.0004979665391147137, -0.04646291956305504, -0.06211699917912483, 0.08258175104856491, -0.034920383244752884, 0.040849220007658005, 0.03466062247753143, -0.031164051964879036, -0.015125423669815063, 0.0008908074232749641, -0.019956516101956367, -0.013205555267632008, -0.039134979248046875, 0.04760977253317833, 0.06984005868434906, 0.03523457050323486, -0.0015402595745399594, 0.04591427743434906, -0.07185570150613785, -0.030476773157715797, 0.00591540802270174, 0.004361496306955814, 0.03812148794531822, -0.08490286022424698, 0.033714234828948975, -0.004865250084549189, 0.06332673132419586, -0.03833051398396492, -0.02467978000640869, 0.0034957427997142076, -0.020810026675462723, 0.022086510434746742, 0.000359072582796216, -0.013166418299078941, 0.08563307672739029, -0.00641003530472517, 0.04365575686097145, 0.05808749794960022, -0.04651849344372749, 0.04087406024336815, 0.04641931131482124, 0.014598105102777481, 0.009021004661917686, 0.012299288995563984, -0.005532007198780775, 0.06895346194505692, 0.04381181672215462, 0.02180038020014763, -0.05787033960223198, -0.028579844161868095, -0.07716627418994904, 0.029011979699134827, -0.006474177353084087, 0.06435692310333252, -0.04772017523646355, 0.0046828617341816425, -0.028894025832414627, -0.06780495494604111, 0.06256106495857239, 0.072278693318367, -0.06357292830944061, -0.04354573041200638, 0.03644770011305809, -0.015146205201745033, -0.033987849950790405, -0.038992274552583694, 0.03644027188420296, 0.07136721163988113, 0.017757223919034004, -0.028682932257652283, 0.0661984458565712, -0.042567718774080276, -0.006725242827087641, -0.003511086106300354, 0.02579434961080551, 0.028114156797528267, -0.05828459560871124, -0.028747299686074257, 0.04564709961414337, -5.65883019589819e-05, -0.05339533090591431, -0.032072603702545166, -0.01768031157553196, 0.039291102439165115, -0.012910346500575542, -0.03280935063958168, -0.007736677769571543, -0.048312243074178696, 0.030399668961763382, 0.049019377678632736, 0.009114790707826614, 0.006236671004444361, -0.008637149818241596}, {-0.03327357396483421, -0.010191431269049644, 0.0479811392724514, 0.04273934289813042, 0.0017843645764514804, -0.009842069819569588, -0.03494824096560478, 0.012032936327159405, 0.018483079969882965, -0.03582587093114853, -0.02559334971010685, 0.10726236552000046, 0.03292626142501831, 0.0677584707736969, -0.0055056242272257805, -0.050835054367780685, -0.01866493560373783, 0.010756351985037327, 0.021431291475892067, 0.07483731955289841, 0.03673199564218521, 0.00614604726433754, -0.009910142980515957, -0.053760696202516556, -0.029812423512339592, 0.011332709342241287, -0.017352119088172913, -0.0027743892278522253, -0.11830960214138031, -0.027938077226281166, -0.04743850603699684, -0.0513661652803421, -0.062163956463336945, 0.017950577661395073, -0.039548370987176895, 0.040471162647008896, -0.029439419507980347, -0.0017041838727891445, -0.008277321234345436, 0.03572877496480942, -0.012302595190703869, 0.02174646407365799, 0.003287602448835969, 0.022975651547312737, -0.06750557571649551, -0.00782626774162054, -0.07220907509326935, -0.006610188167542219, 0.009966636076569557, -0.012474137358367443, -0.021485285833477974, -0.011476440355181694, 0.04828132316470146, 0.06112033128738403, -0.08362678438425064, 0.001964779570698738, -0.01389723177999258, 0.039476267993450165, -0.052420951426029205, 0.0031858873553574085, -0.04089110717177391, -0.005967309232801199, -0.09070831537246704, 0.012151299975812435, 0.06390483677387238, -0.046370215713977814, -0.0319923497736454, 0.045589666813611984, 0.04115226864814758, -0.008009267970919609, 0.022927891463041306, 0.05791167914867401, -0.007192990742623806, -0.01596999354660511, -0.041295427829027176, -0.017969584092497826, 0.006324876099824905, -0.10845068842172623, 0.0685814693570137, -0.019761309027671814, -0.034206535667181015, 0.05070734769105911, -0.059882793575525284, 0.06179169565439224, -0.0024203122593462467, -0.02496066316962242, 0.039929069578647614, -0.00015167896344792098, 0.009349293075501919, 0.024027325212955475, -0.05603642761707306, -0.026053933426737785, 0.05327918380498886, -0.06053810939192772, 0.00034446603967808187, -0.007140490226447582, -0.032140400260686874, -0.03047829680144787, -0.008913654834032059, 0.027092712000012398}, {-0.019586682319641113, -0.013864133507013321, -0.033984676003456116, 0.05028417706489563, -0.035515252500772476, -0.012207559309899807, -0.010979177430272102, 0.00937578547745943, 0.015873556956648827, -0.030320534482598305, 0.05312001705169678, 0.009614414535462856, 0.04991171136498451, 0.012492373585700989, -0.006706607528030872, -0.009384538047015667, -0.015552732162177563, 0.028330974280834198, 0.030502719804644585, 0.005085565149784088, 0.04184762388467789, 0.033802568912506104, 0.00499300891533494, -0.043387021869421005, 0.06362855434417725, -0.004499754402786493, -0.008837025612592697, -0.004316266626119614, -0.0004261491703800857, -0.012988957576453686, -0.004336569923907518, 0.002361967694014311, -0.016171112656593323, 0.03929217904806137, -0.0435013547539711, -0.008583771996200085, -0.02332739718258381, -0.01177409291267395, 0.01137568335980177, -0.019159944728016853, 0.006636022124439478, 0.047143228352069855, 0.0009454695391468704, 0.03278332203626633, -0.02873454988002777, 0.007797351107001305, 0.012986520305275917, 0.005489232484251261, 0.008964537642896175, -0.004662215709686279, -0.03396739065647125, 0.007933034561574459, 0.0797419622540474, 0.013509045355021954, -0.0007385812350548804, -0.035085178911685944, -0.02265634946525097, -0.037620581686496735, 0.011824285611510277, -0.052370160818099976, 0.013069444335997105, -0.00903320126235485, -0.056262314319610596, -0.05223754048347473, -0.022081464529037476, 0.024927876889705658, 0.030048875138163567, -0.025978179648518562, 0.025808073580265045, 0.016167201101779938, 0.03574157878756523, -0.0008276270818896592, -0.022493591532111168, 0.0325358584523201, 0.011687332764267921, 0.03386875241994858, -0.024959160014986992, 0.01494723092764616, -0.016923150047659874, -0.03354763984680176, -0.01363410148769617, 0.03732328861951828, 0.0038261220324784517, -0.004841771442443132, -0.025942087173461914, -0.0006196099566295743, 0.006151046138256788, -0.02503315359354019, 0.007037593051791191, 0.0037812558002769947, 0.01729143038392067, -0.02010098658502102, -0.0031380641739815474, -0.015963668003678322, -0.0048832278698682785, -0.010485880076885223, 0.05987001582980156, 0.010453763417899609, -0.00895735714584589, 0.022132549434900284}, {0.07255096733570099, -0.012197049334645271, 0.04200790077447891, 0.016173219308257103, -0.0011758473701775074, 0.03313129022717476, 0.07813937962055206, 0.07541703432798386, -0.013384049758315086, 0.004370180424302816, -0.009329878725111485, 0.026358317583799362, 0.0027535581029951572, 0.2216511219739914, -0.035640452057123184, -0.04144449532032013, -0.0861922949552536, -0.0857321172952652, -0.0672140121459961, 0.023751841858029366, 0.014978589490056038, -0.016455156728625298, 0.03241461515426636, -0.10741684585809708, -0.03820565342903137, -0.10603315383195877, -0.016725068911910057, -0.032586827874183655, -0.05013400316238403, -0.0021737925708293915, -0.010725686326622963, 0.059183668345212936, 0.01588316448032856, 0.011500519700348377, -0.008746379986405373, -0.01337586622685194, -0.05343633517622948, 0.0019128404092043638, -0.011695420369505882, -0.08368055522441864, -0.1538936197757721, 0.010139575228095055, -0.02069246396422386, 0.034481700509786606, -0.07146459817886353, 0.03476569056510925, -0.0482063926756382, -0.0629476010799408, -0.004604797810316086, -0.07811203598976135, 0.08226138353347778, 0.079814612865448, -0.02522808127105236, 0.0033183458726853132, -0.017534643411636353, -0.07564137130975723, -0.027872728183865547, -0.01615290716290474, 0.010185299441218376, 0.021081218495965004, 0.026700837537646294, -0.06478407979011536, -0.04256770759820938, 0.02845294028520584, 0.010206421837210655, -0.024880651384592056, 0.019883060827851295, 0.04306662455201149, -0.04238465428352356, -0.004171305801719427, 0.07443863153457642, 0.0026518278755247593, -0.026857897639274597, -0.0218522809445858, -0.04168907180428505, 0.032152917236089706, 0.09111753851175308, -0.04393914341926575, -0.02314804308116436, 0.043459247797727585, 0.043845321983098984, -0.042222753167152405, -0.0026014132890850306, -0.0635615885257721, 0.03601298853754997, 0.10467211902141571, -0.021966828033328056, -0.014929182827472687, 0.04898320883512497, -0.005444916430860758, -0.002096732147037983, 0.06484313309192657, 0.0076709468849003315, -0.12393230199813843, 0.04472067207098007, 0.0457640178501606, 0.04475456848740578, -0.04580777883529663, 0.01307065412402153, 0.025709908455610275}, {-0.017378302291035652, 0.022381747141480446, 0.021951312199234962, 0.03916553780436516, -0.00863800011575222, 0.001665077405050397, -0.042388346046209335, -0.05070452764630318, 0.03651667758822441, 0.017197448760271072, -0.05435469001531601, 0.005610418971627951, -0.013393698260188103, -0.09193364530801773, 0.0733049064874649, 0.016882523894309998, 0.01195136085152626, 0.07242480665445328, 0.00828470103442669, -0.02185816876590252, -0.0009769515600055456, 0.0005910121253691614, -0.0667463093996048, -0.0027655723970383406, 0.02904602885246277, -0.006110089831054211, 0.06377378106117249, 0.030247515067458153, 0.014069712720811367, -0.022790061309933662, 0.04160838946700096, -0.025572320446372032, -0.0038938112556934357, -0.02648390829563141, -0.0023033502511680126, -0.025227433070540428, 0.01443553064018488, 0.061621472239494324, -0.004814875312149525, 0.07927515357732773, 0.06859127432107925, -0.03339902311563492, 0.03354468569159508, -0.060099001973867416, 0.02970709279179573, 0.036926355212926865, -0.00984237901866436, -0.018459798768162727, 0.03338771313428879, 0.007343929726630449, -0.051405902951955795, -0.0015014486853033304, 0.002227990422397852, 0.04701361805200577, 0.008136977441608906, -0.008261758834123611, 0.06888128072023392, 0.017025025561451912, 0.044534262269735336, -0.011146100237965584, 0.0252027940005064, -0.016346357762813568, 0.03175004571676254, -0.02573353983461857, 0.03126319870352745, -0.03969612345099449, 0.02680862508714199, 0.025652598589658737, 0.030579598620533943, -0.0038588892202824354, -0.06027380749583244, 0.03360769525170326, -0.0014390518190339208, 0.03440777212381363, 0.012744763866066933, -0.009134240448474884, 0.011916249059140682, -0.018016468733549118, 0.017261240631341934, -0.047823935747146606, -0.06774386763572693, 0.010522501543164253, 0.05669908970594406, 0.004611306823790073, -0.058374665677547455, -0.037984564900398254, -0.017235660925507545, 0.07570149004459381, 0.007701633032411337, -0.031102126464247704, -0.035960596054792404, -0.011608886532485485, 0.011381960473954678, 0.055195633322000504, 0.021480955183506012, -0.02637774497270584, -0.025982359424233437, 0.021256467327475548, -0.008397259749472141, 0.019607817754149437}, {-0.02971804141998291, -0.0037203067913651466, -0.013993406668305397, -0.00436357781291008, -0.0025956700555980206, 0.01714015007019043, -0.00648453226312995, 0.007923075929284096, 0.009790650568902493, -0.011079923249781132, 0.03804731369018555, -0.045111771672964096, 0.022505952045321465, -0.0005987209151498973, -0.006865558680146933, 0.047902192920446396, 0.01908637396991253, 0.02656160667538643, 0.018095653504133224, -0.01938893087208271, 0.0004596788203343749, 0.019877539947628975, 0.01772494614124298, 0.026987962424755096, 0.05905870720744133, -0.021181240677833557, 0.01625622995197773, 0.0020428220741450787, 0.03708504140377045, 0.006892225705087185, -0.003542383201420307, 0.009976881556212902, 0.012622175738215446, 0.008649144321680069, 0.003946157172322273, -0.03378493711352348, 0.002023130189627409, 0.028638439252972603, 0.020081261172890663, 0.03355297073721886, 0.0031437391880899668, 0.00048314096056856215, -0.003518967889249325, -0.013102751225233078, 0.07154323160648346, 0.016613300889730453, 0.019052062183618546, -0.0228879451751709, 0.004335345700383186, -0.015328743495047092, -0.030475715175271034, 0.007059033028781414, 0.0055928523652255535, -0.01062999852001667, 0.03180178254842758, -0.017127247527241707, 0.008288449607789516, -0.00981044489890337, 0.06163609027862549, -0.013443799689412117, -0.01328863762319088, 0.013390135951340199, 0.018763752654194832, -0.01195196807384491, -0.040316589176654816, 0.023041343316435814, 0.0438113808631897, -0.009812462143599987, 0.0006149110849946737, 0.014679638668894768, 0.014470156282186508, -0.03823672980070114, -0.04216029495000839, 0.03649827465415001, 0.015597101300954819, 0.035413723438978195, 0.013905270956456661, 0.02310166507959366, -0.037337616086006165, 0.015517952851951122, 0.0278947614133358, 0.0019241570262238383, 0.04647573456168175, 0.0014296943554654717, -0.03582379221916199, -0.01768381893634796, -0.05399392545223236, -0.011953495442867279, -0.015725089237093925, 0.0003099801833741367, 0.03896871209144592, 0.0008637698483653367, -0.01745971105992794, 0.011323072016239166, -0.0009726062999106944, -0.02427223138511181, 0.048949602991342545, -0.004296537488698959, -0.003311172593384981, 0.008882395923137665}, {-0.04095808044075966, -0.003649535123258829, -0.026631692424416542, -0.02660563215613365, 0.0020413431338965893, -0.008151903748512268, -0.027970749884843826, -0.03641650453209877, 0.009607250802218914, -0.041188012808561325, 0.02339019440114498, -0.017346050590276718, 0.009475741535425186, -0.024060571566224098, 0.006187452934682369, 0.009376316331326962, 0.04678258299827576, 0.031639572232961655, 0.0449589341878891, 0.011548046953976154, -0.006942586041986942, 0.0356578528881073, -0.011604714207351208, 0.015186154283583164, -0.015450659207999706, 0.007672685664147139, 0.00072636385448277, 0.04851934313774109, 0.007625588681548834, -0.020845647901296616, -0.03794964775443077, -0.0283729899674654, -0.0077135395258665085, 0.011836390011012554, -0.005016907583922148, -0.001488097826950252, 0.009519360959529877, 0.023101208731532097, 0.008653709664940834, 0.04909099265933037, 0.0565657876431942, -0.0004955657059326768, 0.0093778595328331, -0.015421525575220585, 0.013806642964482307, -0.04043325409293175, 0.023354114964604378, 0.04045579954981804, 0.0037406471092253923, 0.03538769483566284, -0.007907937280833721, -0.027343574911355972, 0.025397105142474174, 0.07829750329256058, 0.002800634829327464, 0.03848829120397568, 0.007997514680027962, -0.04327952116727829, 0.0025222471449524164, -0.028751322999596596, 0.006723068654537201, -0.016010679304599762, 0.030899571254849434, -0.017973661422729492, 0.0062574949115514755, 0.017806148156523705, 0.051184531301259995, -0.02721397764980793, 0.012703455984592438, 0.00783141702413559, 0.019485771656036377, -0.00032133935019373894, 0.013255596160888672, 0.011544106528162956, 0.017352262511849403, 0.04078799858689308, -0.03698928654193878, 0.030137212947010994, 0.008123968727886677, -0.021931441500782967, -0.040067046880722046, 0.044272296130657196, 0.00470949150621891, 0.00027691616560332477, -0.016802504658699036, -0.04509656876325607, 0.005209509748965502, -0.0017686733044683933, -0.029938241466879845, 0.012921860441565514, -0.0076021431013941765, -0.020057516172528267, 0.040048111230134964, 0.04746956005692482, -0.04019204154610634, -0.01925436034798622, -0.026821834966540337, 0.007973331958055496, -0.0039320290088653564, -0.0835130587220192}, {-0.07917152345180511, 0.02881084755063057, 0.009862991981208324, -0.01645256020128727, 0.03134789690375328, 0.04000460356473923, -0.026636941358447075, 0.003536077681928873, 0.05943719297647476, -0.040961556136608124, 0.02174137532711029, 0.01610047183930874, 0.01647578366100788, -0.04794436693191528, 0.003907832317054272, 0.026835132390260696, 0.031219178810715675, 0.08039546012878418, 0.06090351939201355, 0.012204802595078945, -0.010367046110332012, 0.0017075288342311978, 0.0022489544935524464, 0.023610200732946396, 0.05889032036066055, 0.05885116010904312, 0.01563728041946888, -0.007276711519807577, 0.012949570082128048, -0.022176120430231094, 0.01528033334761858, -0.018263641744852066, -0.019810669124126434, -0.01804041676223278, 0.008580606430768967, 0.016179781407117844, 0.04491409286856651, 0.031164975836873055, 0.006144985556602478, 0.07207491993904114, 0.039255186915397644, 0.03069029375910759, 0.01585528999567032, -0.019717784598469734, 0.047607045620679855, -0.01964516192674637, -0.0018361186375841498, 0.023329587653279305, 0.03216886147856712, 0.008986803703010082, -0.09047381579875946, -0.021388160064816475, 0.0063157412223517895, 0.01601063273847103, -0.0022296186070889235, -0.014528346247971058, 0.030590469017624855, -0.003245461033657193, 0.006920814048498869, -0.002574587007984519, -0.053053900599479675, 0.016952484846115112, 0.00931472796946764, 0.020929507911205292, -0.016544824466109276, 0.004238069988787174, 0.031443193554878235, 0.009214322082698345, 0.06098223850131035, -0.0031149855349212885, -0.05352703109383583, -0.0203125961124897, -0.03109494037926197, 0.0265879537910223, -0.011679122224450111, 0.007007872685790062, -0.03384861722588539, -0.012309757992625237, 0.01770695112645626, -4.909701237920672e-05, -0.007854441180825233, 0.04514835774898529, -0.02479938231408596, 0.06829237937927246, -0.0741480365395546, -0.053329408168792725, -0.010773468762636185, 0.005413114093244076, -0.06446535885334015, -0.005269049666821957, 0.008011209778487682, -0.02292899787425995, -0.009751339443027973, 0.02023058384656906, -0.03599841520190239, -0.05062350630760193, 0.05689530819654465, -0.030887091532349586, -0.04054519161581993, 0.01272654440253973}, {-0.06111770495772362, 0.008279722183942795, -0.013477025553584099, -0.01950211636722088, -0.0031839413568377495, 0.01842198148369789, -0.03982188552618027, -0.010969232767820358, 0.030083810910582542, -0.04331405460834503, 0.029604261741042137, 0.03075098805129528, 0.027203841134905815, -0.038262538611888885, -0.0024567388463765383, 0.011699529364705086, 0.04568552225828171, 0.042716629803180695, 0.05331852659583092, 0.027011308819055557, 0.012091690674424171, 0.04370853677392006, -0.0001556283386889845, 0.02799195982515812, 0.004044456873089075, -0.009672781452536583, -0.002228353638201952, 0.034286465495824814, -0.029126863926649094, -0.006000388879328966, -0.022616229951381683, -0.04553361237049103, -0.01763872429728508, 0.026981238275766373, -0.00835525430738926, 0.006319220643490553, 0.00483229523524642, 0.03831921145319939, 0.014883315190672874, 0.06729019433259964, 0.0295206680893898, 0.016954991966485977, 0.011159224435687065, -0.002751690801233053, -0.027552274987101555, -0.03237117826938629, 0.01538290549069643, 0.03597705811262131, 0.020267166197299957, 0.013898510485887527, -0.04578636959195137, -0.03168785572052002, 0.044507890939712524, 0.0764937624335289, -0.017743077129125595, 0.009631910361349583, 0.0092488257214427, -0.012499839067459106, -0.032771650701761246, -0.008928358554840088, -0.0017031582538038492, -0.00958970095962286, -0.001906038960441947, -0.007090370636433363, 0.008672783151268959, 0.016500171273946762, 0.03530564159154892, -0.013942205347120762, 0.009927886538207531, 0.004825787153095007, 0.0029122126288712025, -0.008211526088416576, -0.007515492849051952, 0.007831957191228867, 0.023112794384360313, -0.007378250826150179, -0.016810957342386246, 0.010019596666097641, 0.01953519880771637, -0.012591252103447914, -0.013713271357119083, 0.03862324729561806, -0.008095812983810902, 0.010109872557222843, -0.04666508734226227, -0.024570787325501442, 0.032129205763339996, -0.015027320943772793, -0.0344972126185894, 0.024828996509313583, -0.006889883894473314, -0.02722138725221157, 0.03623117506504059, 0.017972879111766815, -0.046977825462818146, -0.033257655799388885, -0.021331576630473137, -0.011037030257284641, -0.025081928819417953, -0.03455127775669098}, {-0.03761351481080055, -0.006332170683890581, 0.012245248071849346, -0.01582774519920349, 0.009433620609343052, -0.0006619251798838377, -0.007266178727149963, 